34 128
34 -0.060929 -0.195143 0.109179 -0.024807 0.050128 -0.121653 0.131427 -0.041465 -0.130240 0.100629 -0.059842 0.171856 0.097930 -0.187309 -0.104899 -0.186992 -0.057387 -0.110555 -0.031003 -0.018591 0.245963 0.053398 0.164018 0.089847 -0.101501 -0.068394 -0.039317 0.106750 0.066670 0.202859 -0.005710 0.104990 -0.104397 0.117933 -0.189340 -0.084212 0.186055 0.065551 0.061067 -0.144818 -0.153133 0.118501 0.088212 0.079664 -0.140774 0.149835 -0.056515 -0.053588 -0.091533 0.077805 -0.023259 0.126688 0.013257 0.122911 -0.253468 -0.123013 -0.065759 0.088217 -0.154320 0.074550 0.113791 -0.127209 -0.131765 0.010590 -0.078274 -0.072180 -0.065887 -0.064661 -0.015449 -0.054639 -0.040052 -0.009226 0.046347 -0.022761 0.055010 0.012766 0.181926 -0.010969 0.047799 -0.027154 -0.153756 -0.116076 0.002296 -0.144034 -0.096907 0.297188 -0.073142 -0.059043 -0.012353 -0.101884 0.031076 0.132415 0.105203 -0.122522 -0.130836 0.206442 -0.130697 0.036083 0.087354 -0.020468 -0.157656 0.075590 -0.084316 -0.113488 0.021529 0.025312 0.316799 0.093439 -0.040621 -0.020129 -0.083838 -0.151927 -0.045533 0.007177 -0.048626 -0.054389 -0.096163 0.213823 -0.074989 -0.101033 -0.093533 -0.214398 -0.005612 -0.217187 0.017650 0.118625 -0.073194 0.087842
1 -0.044586 -0.254735 0.079754 -0.033766 0.031892 -0.142918 0.081482 0.057939 -0.022974 0.083862 -0.014384 0.212446 0.059385 -0.199971 0.003927 -0.207230 -0.100200 -0.160430 -0.007378 -0.087847 0.249386 0.037425 0.143349 0.059754 -0.047042 -0.036609 -0.017100 0.099513 0.127577 0.197223 0.001330 0.041451 -0.128852 0.149262 -0.149840 -0.128363 0.160364 0.075685 0.049041 -0.132682 -0.081061 0.046768 0.128215 0.137063 -0.216621 0.173214 -0.029543 -0.056133 -0.027295 0.105251 -0.114925 0.089760 -0.021263 0.148522 -0.252794 -0.126762 -0.043033 0.168604 -0.096804 0.022118 0.142184 -0.149670 -0.064699 0.028530 -0.143016 0.030078 -0.070241 -0.048106 0.010446 -0.112318 -0.087170 0.004853 0.014884 -0.032688 0.159984 0.083537 0.197348 -0.047238 0.039176 -0.139216 -0.198065 -0.036115 -0.017418 -0.078102 -0.149465 0.143397 0.068755 -0.093961 0.094776 -0.075902 0.108676 0.053009 0.098999 -0.091021 -0.164143 0.152323 -0.105537 -0.092322 0.151304 0.067062 -0.121362 0.039337 -0.093368 -0.076198 -0.027540 0.010342 0.264678 0.105967 -0.077991 -0.076033 -0.079334 -0.063383 -0.009413 0.031221 -0.081914 -0.023212 -0.081399 0.161967 -0.108179 -0.145033 -0.059694 -0.159197 0.080817 -0.207298 -0.066815 0.005060 0.000899 0.098423
33 -0.058520 -0.179007 0.105119 -0.024686 0.049276 -0.112971 0.127331 -0.049982 -0.134288 0.099243 -0.062110 0.156985 0.096135 -0.175740 -0.108708 -0.169127 -0.053801 -0.091137 -0.038847 -0.010271 0.236134 0.055665 0.158104 0.088592 -0.112408 -0.064556 -0.044326 0.107746 0.055609 0.196492 -0.012640 0.115551 -0.096163 0.113971 -0.196154 -0.082770 0.183763 0.059259 0.057395 -0.140982 -0.162985 0.126117 0.078881 0.067137 -0.127124 0.154217 -0.063182 -0.050705 -0.107234 0.070847 -0.015283 0.133588 0.020356 0.114206 -0.256526 -0.118581 -0.073993 0.077329 -0.161188 0.083130 0.114996 -0.132781 -0.139687 0.009517 -0.060587 -0.086916 -0.051883 -0.064742 -0.019488 -0.039277 -0.025910 -0.012927 0.056839 -0.021859 0.032402 0.003546 0.175379 -0.010936 0.045993 -0.012060 -0.131462 -0.125425 0.000835 -0.151652 -0.091439 0.311578 -0.092162 -0.051837 -0.027096 -0.103420 0.026659 0.139864 0.102873 -0.121988 -0.116647 0.202936 -0.129723 0.045316 0.078167 -0.032307 -0.156399 0.067912 -0.082028 -0.108592 0.035239 0.019773 0.310757 0.085883 -0.031704 -0.015651 -0.089672 -0.159713 -0.047762 -0.003487 -0.039870 -0.054707 -0.096566 0.209465 -0.069942 -0.098827 -0.093985 -0.214676 -0.017499 -0.209071 0.038907 0.124738 -0.090396 0.076658
3 -0.050457 -0.236581 0.090357 -0.027792 0.035320 -0.133096 0.101960 0.026117 -0.061290 0.089985 -0.025235 0.201095 0.066873 -0.203469 -0.031873 -0.202662 -0.087258 -0.150997 -0.022926 -0.069555 0.245969 0.043190 0.150013 0.073308 -0.059214 -0.049725 -0.030478 0.100718 0.110240 0.206357 0.000529 0.059728 -0.122768 0.137515 -0.163112 -0.117576 0.174393 0.078066 0.048035 -0.130968 -0.103760 0.066986 0.114355 0.120363 -0.193457 0.168494 -0.029592 -0.056601 -0.057785 0.097972 -0.079670 0.098411 -0.017042 0.135881 -0.250341 -0.129887 -0.056787 0.143004 -0.110726 0.040809 0.130989 -0.138936 -0.082781 0.028192 -0.117508 -0.006228 -0.061614 -0.047200 0.007734 -0.094339 -0.067574 0.007400 0.017348 -0.025828 0.127783 0.060677 0.191004 -0.034064 0.041533 -0.101812 -0.175316 -0.049212 -0.010298 -0.093783 -0.130112 0.190253 0.026251 -0.078146 0.052679 -0.082529 0.080192 0.078395 0.098376 -0.094037 -0.152281 0.169315 -0.108615 -0.046403 0.130496 0.038396 -0.130572 0.047744 -0.097458 -0.085340 -0.011714 0.014443 0.268604 0.094739 -0.057541 -0.059506 -0.074669 -0.085444 -0.020709 0.019317 -0.066170 -0.028444 -0.088684 0.177040 -0.089955 -0.127391 -0.069382 -0.176424 0.056019 -0.206272 -0.044846 0.039214 -0.021580 0.095753
2 -0.040095 -0.229525 0.079762 -0.029746 0.031956 -0.127647 0.093593 0.032973 -0.056175 0.083919 -0.024369 0.199879 0.067981 -0.193702 -0.023470 -0.198479 -0.092830 -0.143100 -0.022832 -0.069067 0.244584 0.043175 0.150424 0.066071 -0.064732 -0.045168 -0.029778 0.098338 0.113574 0.199527 0.004751 0.053983 -0.120382 0.139306 -0.160254 -0.108627 0.167274 0.066810 0.048803 -0.131878 -0.092745 0.067035 0.114139 0.117046 -0.192057 0.163966 -0.037455 -0.054168 -0.049303 0.091065 -0.086892 0.091404 -0.010119 0.143791 -0.256249 -0.123624 -0.045948 0.147918 -0.112734 0.042421 0.130657 -0.139448 -0.077141 0.019316 -0.120733 0.009254 -0.066277 -0.049659 0.000919 -0.096105 -0.073847 0.005973 0.022735 -0.030828 0.128999 0.070152 0.188949 -0.036885 0.038323 -0.106257 -0.180296 -0.053025 -0.016047 -0.086397 -0.125923 0.186189 0.029466 -0.080990 0.067097 -0.082931 0.088571 0.073694 0.097566 -0.101364 -0.152047 0.165225 -0.111726 -0.055353 0.126861 0.045833 -0.123538 0.044179 -0.091929 -0.087356 -0.015973 0.007341 0.272391 0.104754 -0.066931 -0.059435 -0.082061 -0.081084 -0.019415 0.017112 -0.073440 -0.033099 -0.086075 0.172126 -0.097013 -0.133965 -0.068829 -0.175276 0.059263 -0.210529 -0.038642 0.035912 -0.013920 0.096161
4 -0.048989 -0.226676 0.088327 -0.027454 0.038913 -0.133651 0.099075 0.021559 -0.067471 0.088167 -0.027557 0.199864 0.074894 -0.196564 -0.038336 -0.202480 -0.085827 -0.145996 -0.020742 -0.061547 0.252209 0.044443 0.149703 0.071705 -0.067564 -0.049333 -0.030401 0.104978 0.106695 0.200681 -0.002970 0.062517 -0.119550 0.135346 -0.166215 -0.110509 0.178520 0.074595 0.051790 -0.136003 -0.107613 0.072030 0.115213 0.119450 -0.183231 0.165475 -0.037855 -0.057457 -0.061332 0.091728 -0.076970 0.100780 -0.006073 0.139852 -0.258272 -0.126715 -0.051651 0.135706 -0.117884 0.041979 0.136221 -0.142637 -0.086735 0.020912 -0.114437 -0.006158 -0.072808 -0.050435 0.001696 -0.092873 -0.069352 0.004884 0.025563 -0.032868 0.123169 0.056391 0.193910 -0.030202 0.037563 -0.090003 -0.175855 -0.068838 -0.011400 -0.097956 -0.126309 0.205738 0.018096 -0.081635 0.052463 -0.084359 0.075222 0.080300 0.096510 -0.104615 -0.149975 0.175072 -0.117238 -0.043605 0.123899 0.032945 -0.137532 0.052612 -0.090054 -0.086617 -0.013442 0.014903 0.279545 0.101337 -0.062004 -0.056346 -0.077266 -0.096819 -0.025983 0.019120 -0.068314 -0.033136 -0.091249 0.183380 -0.094054 -0.128657 -0.071172 -0.179062 0.045891 -0.215022 -0.036308 0.050198 -0.024386 0.099006
32 -0.056986 -0.172490 0.092139 -0.027453 0.045014 -0.109125 0.120092 -0.048855 -0.125442 0.091316 -0.054642 0.150456 0.092545 -0.165751 -0.102177 -0.165041 -0.050922 -0.099440 -0.037486 -0.009153 0.227872 0.058196 0.147948 0.086698 -0.106722 -0.063057 -0.045742 0.104842 0.060582 0.187634 -0.010999 0.104101 -0.085676 0.108880 -0.190296 -0.081127 0.178140 0.063119 0.057617 -0.143913 -0.149920 0.113312 0.070419 0.064270 -0.134484 0.145786 -0.063447 -0.041550 -0.097282 0.064718 -0.021881 0.129369 0.012073 0.120598 -0.254022 -0.117924 -0.060059 0.077502 -0.162686 0.078264 0.110289 -0.127916 -0.128623 0.015665 -0.075463 -0.073217 -0.057711 -0.054258 -0.023615 -0.048075 -0.036134 -0.005933 0.050703 -0.027100 0.038347 0.006020 0.162464 -0.010172 0.041662 -0.020218 -0.137979 -0.113584 0.005038 -0.136904 -0.085912 0.288381 -0.078888 -0.049440 -0.014028 -0.103947 0.029196 0.129173 0.106628 -0.119541 -0.109768 0.187133 -0.125593 0.039810 0.076695 -0.029772 -0.148639 0.068563 -0.084665 -0.106864 0.035764 0.032947 0.307079 0.088127 -0.036601 -0.014565 -0.087688 -0.155555 -0.040363 0.007027 -0.045376 -0.053329 -0.090955 0.203162 -0.056513 -0.107171 -0.093488 -0.217205 -0.019236 -0.209976 0.034129 0.115943 -0.088780 0.082535
24 -0.052505 -0.146987 0.102226 -0.020932 0.047891 -0.096376 0.119640 -0.059641 -0.137460 0.087415 -0.055853 0.130461 0.094646 -0.154221 -0.113979 -0.155202 -0.041135 -0.081202 -0.032853 -0.002200 0.208671 0.055356 0.142288 0.091677 -0.102272 -0.056747 -0.041961 0.093831 0.044001 0.175162 -0.016094 0.104889 -0.083522 0.092670 -0.169894 -0.064979 0.167196 0.044001 0.055077 -0.131636 -0.144650 0.115869 0.059860 0.055567 -0.099088 0.127945 -0.065376 -0.037228 -0.096382 0.053545 0.004446 0.115232 0.016670 0.104384 -0.215777 -0.096599 -0.055830 0.056050 -0.158088 0.078899 0.092287 -0.109627 -0.126451 0.003022 -0.055161 -0.084433 -0.053068 -0.053211 -0.027177 -0.029556 -0.022061 -0.009089 0.046911 -0.021872 0.022388 -0.006540 0.149976 -0.008406 0.040165 0.005883 -0.114286 -0.117368 0.006143 -0.133305 -0.070832 0.288980 -0.101218 -0.037618 -0.030683 -0.094251 0.008868 0.131086 0.093517 -0.117649 -0.100220 0.190482 -0.117162 0.062403 0.058721 -0.040006 -0.146408 0.074991 -0.065285 -0.100175 0.033586 0.030675 0.285334 0.081821 -0.023842 -0.002161 -0.074434 -0.156089 -0.048209 -0.000109 -0.039836 -0.057520 -0.087692 0.190954 -0.050011 -0.081707 -0.088550 -0.204137 -0.030900 -0.194403 0.047294 0.129855 -0.084652 0.075211
14 -0.049180 -0.211590 0.093494 -0.031712 0.037723 -0.117956 0.102892 0.001241 -0.085579 0.091792 -0.042041 0.186060 0.071301 -0.188281 -0.050023 -0.187243 -0.075754 -0.125608 -0.023606 -0.053192 0.238693 0.050615 0.146765 0.075415 -0.077439 -0.046026 -0.026391 0.105428 0.087811 0.197699 -0.001321 0.072455 -0.114343 0.133838 -0.162736 -0.102461 0.171942 0.065319 0.050810 -0.131570 -0.118471 0.081298 0.101977 0.106936 -0.165229 0.160037 -0.039415 -0.051283 -0.067561 0.088967 -0.063588 0.099896 -0.001446 0.128893 -0.244331 -0.122136 -0.062294 0.122977 -0.127802 0.047450 0.121266 -0.136035 -0.093112 0.014082 -0.099095 -0.022171 -0.057189 -0.056872 -0.002860 -0.081414 -0.060233 0.002274 0.026068 -0.022087 0.101794 0.047659 0.180605 -0.028295 0.038673 -0.075323 -0.159895 -0.074186 -0.007875 -0.101757 -0.117182 0.223073 -0.009206 -0.071104 0.034881 -0.086854 0.064901 0.088730 0.092821 -0.101860 -0.140750 0.173430 -0.116220 -0.017887 0.109661 0.020003 -0.132919 0.047770 -0.088494 -0.088159 -0.003518 0.014144 0.272563 0.093961 -0.057035 -0.046658 -0.081273 -0.103273 -0.030469 0.013960 -0.054997 -0.035779 -0.092388 0.179110 -0.086618 -0.111019 -0.074755 -0.181196 0.033534 -0.202108 -0.012673 0.059081 -0.036630 0.086103
28 -0.056941 -0.171435 0.103401 -0.027541 0.046227 -0.103942 0.118943 -0.048271 -0.131119 0.089543 -0.054403 0.150563 0.091826 -0.161102 -0.104252 -0.165336 -0.051075 -0.094760 -0.030226 -0.008773 0.218027 0.053654 0.147740 0.087349 -0.102202 -0.055838 -0.043511 0.100544 0.060511 0.181329 -0.011363 0.103574 -0.086526 0.108041 -0.176643 -0.078426 0.168223 0.052918 0.058349 -0.134963 -0.143398 0.106506 0.072282 0.066120 -0.123054 0.135035 -0.067252 -0.044476 -0.094232 0.061428 -0.018605 0.117466 0.017179 0.108989 -0.229151 -0.105745 -0.059713 0.069164 -0.159756 0.077155 0.101889 -0.121755 -0.120456 0.008915 -0.065189 -0.071958 -0.056828 -0.053615 -0.027781 -0.047944 -0.032839 -0.007398 0.046819 -0.027779 0.039562 0.006138 0.164123 -0.008273 0.039540 -0.013933 -0.133035 -0.116272 0.003783 -0.133315 -0.081188 0.285201 -0.081293 -0.046409 -0.015755 -0.096250 0.026655 0.126261 0.096391 -0.120587 -0.110214 0.187092 -0.122849 0.045580 0.073395 -0.030113 -0.145461 0.072312 -0.075204 -0.102925 0.032212 0.030851 0.291767 0.091212 -0.030317 -0.016769 -0.080118 -0.145785 -0.047113 0.001641 -0.041204 -0.056103 -0.089940 0.189302 -0.060636 -0.097093 -0.087969 -0.203046 -0.020145 -0.197558 0.030699 0.113036 -0.076850 0.077551
30 -0.053493 -0.190747 0.102015 -0.022893 0.042874 -0.112211 0.130183 -0.046033 -0.130813 0.100550 -0.062758 0.165454 0.093660 -0.183270 -0.105391 -0.182287 -0.055898 -0.103621 -0.038262 -0.013785 0.239648 0.052686 0.161240 0.086908 -0.102117 -0.066396 -0.038894 0.107341 0.058457 0.201271 -0.010369 0.103604 -0.100005 0.114180 -0.192472 -0.081764 0.182993 0.064496 0.060864 -0.148949 -0.154545 0.119116 0.084954 0.079741 -0.135327 0.153519 -0.059617 -0.054585 -0.097736 0.076859 -0.022957 0.129809 0.015070 0.116068 -0.249225 -0.120432 -0.072957 0.085690 -0.155504 0.076080 0.115543 -0.132535 -0.127626 0.009250 -0.070432 -0.076366 -0.063426 -0.064330 -0.017796 -0.055269 -0.034754 -0.008795 0.050884 -0.024669 0.050623 0.007610 0.182472 -0.009261 0.045506 -0.021159 -0.149802 -0.118484 -0.002872 -0.143136 -0.095673 0.301428 -0.081439 -0.055924 -0.017728 -0.102458 0.034247 0.129570 0.107112 -0.118723 -0.124644 0.204040 -0.130622 0.040893 0.084701 -0.024564 -0.149687 0.070774 -0.084607 -0.115427 0.025072 0.022819 0.312477 0.093412 -0.042223 -0.020030 -0.089284 -0.158143 -0.049129 -0.001269 -0.040844 -0.054348 -0.100133 0.208674 -0.073894 -0.095632 -0.096544 -0.211342 -0.010363 -0.211334 0.028164 0.119994 -0.073703 0.083795
8 -0.043790 -0.206379 0.082801 -0.027428 0.031253 -0.113820 0.097760 0.008935 -0.072947 0.087155 -0.035264 0.178962 0.065060 -0.180043 -0.039459 -0.185619 -0.075625 -0.125514 -0.018714 -0.050311 0.229798 0.045220 0.142100 0.064992 -0.070466 -0.043939 -0.027670 0.100254 0.089980 0.193014 -0.002018 0.065451 -0.110837 0.130345 -0.161167 -0.101503 0.172095 0.066241 0.053072 -0.125505 -0.109939 0.076312 0.098867 0.107688 -0.166626 0.161524 -0.040562 -0.054285 -0.065199 0.088315 -0.069137 0.096920 0.000683 0.131438 -0.248276 -0.121724 -0.058358 0.121388 -0.122113 0.044100 0.120202 -0.135732 -0.089779 0.019816 -0.101413 -0.021593 -0.059076 -0.055925 -0.000902 -0.085935 -0.063857 -0.000051 0.026548 -0.027234 0.105958 0.049352 0.180784 -0.028211 0.037669 -0.079287 -0.164054 -0.074001 -0.014432 -0.102334 -0.121848 0.218411 0.003681 -0.072840 0.038583 -0.089228 0.072671 0.082997 0.095969 -0.100870 -0.143558 0.166712 -0.116077 -0.032549 0.111180 0.021276 -0.128825 0.044706 -0.093719 -0.091881 -0.000893 0.008746 0.275375 0.090551 -0.058865 -0.052727 -0.084001 -0.097810 -0.024936 0.013608 -0.065414 -0.031708 -0.090834 0.179194 -0.089584 -0.118386 -0.077146 -0.183593 0.041379 -0.203801 -0.019210 0.054486 -0.029931 0.085641
7 -0.037214 -0.326705 0.073277 -0.024425 0.025255 -0.172119 0.085998 0.107792 0.030774 0.092361 0.011993 0.284284 0.058138 -0.247062 0.054410 -0.251045 -0.148197 -0.222862 -0.016191 -0.134561 0.295757 0.027008 0.164362 0.056786 -0.022418 -0.044058 -0.029905 0.085726 0.158654 0.231681 0.019345 0.031063 -0.151655 0.156803 -0.148355 -0.159559 0.187255 0.101491 0.029050 -0.146821 -0.066929 0.036216 0.169738 0.175049 -0.290047 0.216575 -0.006939 -0.060210 -0.007749 0.134656 -0.172939 0.103247 -0.048803 0.171008 -0.272698 -0.159789 -0.043205 0.222730 -0.066591 -0.007367 0.189438 -0.177471 -0.033352 0.044671 -0.201848 0.074160 -0.090382 -0.041713 0.034372 -0.153270 -0.121001 0.028280 -0.020066 -0.039673 0.240433 0.131253 0.222117 -0.059417 0.027228 -0.210304 -0.236997 0.020952 -0.016660 -0.043047 -0.198668 0.087664 0.143762 -0.116450 0.144488 -0.067188 0.154468 0.028438 0.126880 -0.078292 -0.193297 0.159840 -0.084112 -0.161233 0.198029 0.119514 -0.120076 0.038300 -0.128490 -0.071045 -0.069328 -0.006259 0.277765 0.125975 -0.088241 -0.107717 -0.080424 -0.024625 -0.004223 0.033684 -0.110070 -0.015377 -0.095749 0.172073 -0.139593 -0.186408 -0.048001 -0.162928 0.153330 -0.241586 -0.136667 -0.039768 0.027781 0.134014
9 -0.049677 -0.208300 0.086651 -0.028640 0.037806 -0.121995 0.103918 0.002759 -0.078664 0.090062 -0.037210 0.186308 0.077650 -0.191114 -0.054985 -0.189152 -0.079307 -0.123441 -0.026419 -0.046960 0.235860 0.049551 0.153186 0.071618 -0.078704 -0.048780 -0.032483 0.095870 0.087922 0.198355 -0.001821 0.078866 -0.114090 0.125723 -0.166079 -0.103367 0.177193 0.066859 0.047469 -0.133275 -0.123174 0.083767 0.102978 0.104063 -0.170956 0.160193 -0.043677 -0.054055 -0.070343 0.083400 -0.063539 0.108707 -0.003489 0.131332 -0.247199 -0.124379 -0.058873 0.119108 -0.130425 0.049006 0.126662 -0.137192 -0.102338 0.018880 -0.097445 -0.030039 -0.060783 -0.054656 -0.005540 -0.076046 -0.054563 0.001538 0.035631 -0.027670 0.101454 0.041405 0.181037 -0.022503 0.038277 -0.068906 -0.159414 -0.077894 -0.010276 -0.114076 -0.117101 0.226293 -0.012065 -0.070565 0.028255 -0.087682 0.066156 0.093911 0.102450 -0.101390 -0.140288 0.172877 -0.112110 -0.019085 0.108861 0.017958 -0.138028 0.050216 -0.089389 -0.090962 0.001556 0.014496 0.277565 0.097352 -0.055036 -0.047086 -0.078082 -0.108038 -0.027255 0.011819 -0.059707 -0.040304 -0.093186 0.186459 -0.085617 -0.114598 -0.077548 -0.187012 0.029113 -0.205587 -0.015197 0.069512 -0.041150 0.088621
6 -0.034873 -0.319633 0.070070 -0.020782 0.025605 -0.167621 0.077465 0.115910 0.035522 0.087996 0.018965 0.276820 0.050475 -0.242011 0.064383 -0.247729 -0.149709 -0.221499 -0.008204 -0.139200 0.284458 0.025071 0.155733 0.046323 -0.015669 -0.037953 -0.020884 0.078998 0.162632 0.227812 0.018689 0.015157 -0.147178 0.158869 -0.133723 -0.157964 0.180470 0.104429 0.024488 -0.140558 -0.053419 0.027614 0.169637 0.171779 -0.290438 0.210914 -0.002613 -0.062771 0.001632 0.133896 -0.173463 0.092283 -0.053957 0.165583 -0.257098 -0.157820 -0.038893 0.223259 -0.058189 -0.019473 0.186887 -0.169459 -0.025349 0.044041 -0.199642 0.078871 -0.091989 -0.043047 0.034898 -0.155146 -0.119026 0.026738 -0.022959 -0.036672 0.246818 0.133757 0.218597 -0.058563 0.025093 -0.210602 -0.237579 0.029954 -0.016463 -0.036217 -0.191076 0.065063 0.159711 -0.118289 0.151467 -0.063090 0.158134 0.019389 0.119714 -0.069891 -0.191075 0.146963 -0.080228 -0.169041 0.201316 0.122355 -0.106561 0.028449 -0.120032 -0.061541 -0.074552 -0.002324 0.260367 0.125628 -0.090517 -0.112790 -0.073514 -0.013925 0.001124 0.039999 -0.106593 -0.006191 -0.088297 0.156794 -0.134026 -0.184086 -0.040030 -0.155723 0.157718 -0.235281 -0.141027 -0.048159 0.039151 0.122423
26 -0.057780 -0.160905 0.107759 -0.028379 0.052465 -0.109532 0.130007 -0.068652 -0.150983 0.093657 -0.065083 0.140467 0.105782 -0.167411 -0.126685 -0.162714 -0.040157 -0.084519 -0.037557 0.005879 0.226938 0.059254 0.155854 0.096148 -0.116161 -0.067075 -0.050060 0.101771 0.044132 0.191080 -0.011589 0.118018 -0.083469 0.097743 -0.195973 -0.074338 0.178672 0.052225 0.059128 -0.143758 -0.161945 0.121951 0.061370 0.053387 -0.113156 0.143615 -0.075526 -0.042396 -0.109709 0.064112 0.001060 0.134076 0.019957 0.109444 -0.246098 -0.111575 -0.061354 0.061578 -0.177152 0.088860 0.104476 -0.125116 -0.139273 0.008651 -0.057632 -0.091773 -0.053226 -0.063331 -0.030170 -0.031413 -0.022600 -0.012715 0.056224 -0.024409 0.021544 -0.012815 0.158018 -0.004338 0.043369 0.002208 -0.127259 -0.128513 0.007368 -0.147624 -0.072264 0.316517 -0.113136 -0.043158 -0.036504 -0.106151 0.011291 0.142306 0.106009 -0.120603 -0.102648 0.196658 -0.129381 0.067687 0.067016 -0.046194 -0.154402 0.076945 -0.072764 -0.106497 0.043803 0.033308 0.311206 0.088538 -0.021909 -0.000503 -0.090604 -0.172129 -0.049295 0.001390 -0.037434 -0.061309 -0.090557 0.203372 -0.050069 -0.097152 -0.096664 -0.220893 -0.041200 -0.211030 0.051539 0.142460 -0.100625 0.071663
31 -0.049492 -0.181950 0.098967 -0.022424 0.039298 -0.112463 0.113072 -0.032826 -0.111192 0.091208 -0.045818 0.164606 0.087198 -0.176429 -0.081536 -0.175291 -0.064665 -0.103600 -0.027374 -0.026450 0.224895 0.046906 0.143325 0.082630 -0.086811 -0.054553 -0.031987 0.100153 0.065382 0.185014 -0.009059 0.093414 -0.101614 0.113833 -0.167161 -0.080718 0.168703 0.059464 0.056776 -0.136378 -0.132812 0.102531 0.083926 0.078038 -0.138218 0.144628 -0.052970 -0.051360 -0.082102 0.075769 -0.035718 0.115194 0.008592 0.110858 -0.228972 -0.115397 -0.060435 0.086994 -0.142776 0.058638 0.114102 -0.124100 -0.114879 0.007577 -0.081726 -0.057824 -0.063601 -0.060598 -0.015247 -0.060157 -0.040951 -0.008593 0.040252 -0.023672 0.068392 0.020158 0.176634 -0.017046 0.044462 -0.036171 -0.143360 -0.099283 -0.004355 -0.127612 -0.097159 0.260785 -0.056717 -0.060884 0.001305 -0.095963 0.037607 0.117852 0.102200 -0.110408 -0.129683 0.185654 -0.119398 0.018296 0.086985 -0.005304 -0.142748 0.061563 -0.080898 -0.102404 0.013582 0.020280 0.286252 0.091191 -0.038481 -0.026834 -0.082132 -0.133759 -0.041875 0.003554 -0.046509 -0.042098 -0.094391 0.195198 -0.076843 -0.096334 -0.085177 -0.195410 0.002761 -0.203841 0.009649 0.098563 -0.063369 0.081263
20 -0.049644 -0.221257 0.089706 -0.027663 0.035355 -0.129892 0.109469 0.008383 -0.078666 0.088735 -0.037051 0.188281 0.078706 -0.192060 -0.048415 -0.195046 -0.084159 -0.132949 -0.025602 -0.056243 0.245530 0.044893 0.153521 0.074545 -0.073883 -0.048889 -0.029442 0.098354 0.095077 0.198010 -0.003830 0.071417 -0.112801 0.128466 -0.165824 -0.104815 0.180715 0.068028 0.047653 -0.139439 -0.119238 0.079700 0.102076 0.107056 -0.175146 0.166350 -0.038531 -0.052224 -0.065489 0.087620 -0.072410 0.108603 -0.002056 0.129841 -0.253901 -0.127178 -0.056862 0.123385 -0.129518 0.050248 0.133074 -0.138599 -0.092833 0.022426 -0.109077 -0.022458 -0.064248 -0.052500 -0.003697 -0.081128 -0.064783 0.003486 0.025292 -0.029388 0.108759 0.050624 0.187339 -0.029771 0.039666 -0.079952 -0.169726 -0.074438 -0.008654 -0.110506 -0.121717 0.225038 -0.003726 -0.072708 0.036325 -0.087346 0.074086 0.091092 0.103724 -0.104777 -0.143519 0.176922 -0.113779 -0.028435 0.115748 0.026726 -0.139379 0.051147 -0.097590 -0.090027 -0.003218 0.016514 0.287739 0.098705 -0.053303 -0.047341 -0.085005 -0.102822 -0.028093 0.016208 -0.067580 -0.039682 -0.089629 0.189865 -0.088468 -0.124414 -0.077136 -0.186308 0.040330 -0.217422 -0.022044 0.063588 -0.040545 0.094629
25 -0.056653 -0.163311 0.095373 -0.026496 0.041322 -0.103819 0.117435 -0.055891 -0.125279 0.089837 -0.058408 0.140930 0.093178 -0.158704 -0.108910 -0.163650 -0.044040 -0.088141 -0.031606 -0.000988 0.216180 0.051329 0.146646 0.088906 -0.100651 -0.062580 -0.040465 0.095026 0.045758 0.180133 -0.009572 0.104326 -0.083927 0.096604 -0.182777 -0.071094 0.163455 0.056089 0.053384 -0.136840 -0.150604 0.115561 0.064394 0.055407 -0.112623 0.140168 -0.060823 -0.039240 -0.092729 0.061997 -0.015325 0.124722 0.017560 0.109440 -0.235776 -0.108592 -0.058278 0.063479 -0.156789 0.081450 0.099589 -0.115930 -0.124474 0.006101 -0.064558 -0.080322 -0.052669 -0.054335 -0.028773 -0.036605 -0.026788 -0.012827 0.053199 -0.019505 0.027976 -0.004602 0.153056 -0.005945 0.043591 -0.010716 -0.124191 -0.116278 0.003709 -0.139147 -0.078731 0.282951 -0.089623 -0.048794 -0.028179 -0.101222 0.017268 0.127993 0.102095 -0.116183 -0.107191 0.186943 -0.117617 0.049506 0.068482 -0.030447 -0.145723 0.069365 -0.076203 -0.100453 0.035698 0.025316 0.287219 0.084823 -0.026259 -0.010663 -0.083037 -0.150634 -0.041873 -0.002293 -0.042978 -0.054487 -0.083200 0.191886 -0.057389 -0.091435 -0.087342 -0.197803 -0.025485 -0.197614 0.035606 0.124489 -0.087953 0.072617
5 -0.042626 -0.270504 0.077082 -0.027270 0.035156 -0.146489 0.093962 0.052913 -0.021255 0.086980 -0.009245 0.232002 0.060712 -0.211824 0.004575 -0.221323 -0.111822 -0.174468 -0.017926 -0.088608 0.264082 0.040807 0.149102 0.065198 -0.048905 -0.046513 -0.027470 0.092051 0.124211 0.211533 0.004754 0.046226 -0.132592 0.147389 -0.153118 -0.133946 0.179229 0.087365 0.041477 -0.136965 -0.084560 0.055741 0.131720 0.138880 -0.230647 0.187690 -0.025135 -0.058108 -0.037567 0.108436 -0.118066 0.103253 -0.022062 0.145666 -0.256483 -0.142997 -0.048036 0.172226 -0.093780 0.015108 0.151928 -0.158178 -0.061704 0.033793 -0.152706 0.025722 -0.072691 -0.051871 0.017843 -0.118318 -0.091909 0.013236 0.004980 -0.037356 0.170824 0.084654 0.200472 -0.047619 0.030694 -0.145774 -0.204681 -0.028905 -0.015168 -0.076775 -0.160174 0.151524 0.073662 -0.091771 0.092747 -0.078606 0.112774 0.056008 0.111731 -0.088853 -0.169523 0.164254 -0.106245 -0.093442 0.160093 0.072120 -0.129014 0.042864 -0.108134 -0.084258 -0.036793 0.004891 0.280669 0.108983 -0.079019 -0.079599 -0.084417 -0.067057 -0.013139 0.023026 -0.085721 -0.022057 -0.088603 0.177088 -0.108348 -0.151583 -0.061996 -0.172949 0.092670 -0.226163 -0.077594 0.013440 -0.007743 0.112013
29 -0.045855 -0.179689 0.078044 -0.028755 0.035902 -0.108826 0.093538 -0.009152 -0.081582 0.081971 -0.035620 0.161640 0.069310 -0.164489 -0.056723 -0.167627 -0.068259 -0.112345 -0.021673 -0.037338 0.215371 0.041910 0.131664 0.068823 -0.076665 -0.048377 -0.030118 0.091323 0.081345 0.176546 -0.001225 0.070426 -0.093375 0.111931 -0.157293 -0.085717 0.155928 0.059208 0.050732 -0.124046 -0.106639 0.081248 0.081102 0.081006 -0.140156 0.143825 -0.044748 -0.046423 -0.068857 0.073622 -0.050458 0.095639 0.000016 0.116561 -0.231140 -0.103357 -0.046897 0.102536 -0.119615 0.054880 0.109318 -0.123231 -0.094818 0.014462 -0.087166 -0.032283 -0.057248 -0.049150 -0.005459 -0.060150 -0.050625 -0.002251 0.030477 -0.021999 0.077605 0.036240 0.165476 -0.019714 0.039055 -0.056065 -0.145101 -0.073465 -0.003878 -0.106344 -0.096484 0.214100 -0.018366 -0.063723 0.020159 -0.085305 0.052503 0.086360 0.086908 -0.096589 -0.117617 0.161797 -0.109722 -0.004176 0.092894 0.004634 -0.126752 0.053263 -0.078439 -0.084397 0.009005 0.016003 0.251013 0.081174 -0.043153 -0.034675 -0.072840 -0.103562 -0.031867 0.008027 -0.054296 -0.041039 -0.081222 0.163564 -0.068818 -0.104703 -0.073047 -0.170574 0.014866 -0.187285 -0.001821 0.068764 -0.045315 0.073755
11 -0.043608 -0.287843 0.074760 -0.026014 0.029138 -0.154717 0.077361 0.086975 0.007745 0.082671 0.001618 0.245748 0.050730 -0.213255 0.036307 -0.227939 -0.125172 -0.190375 -0.010474 -0.115668 0.267092 0.031940 0.150453 0.053901 -0.034474 -0.040037 -0.023099 0.091370 0.139095 0.209221 0.013092 0.029784 -0.135833 0.148155 -0.139126 -0.138049 0.178700 0.093593 0.036438 -0.129265 -0.065337 0.039885 0.150377 0.155470 -0.251987 0.195142 -0.010738 -0.054032 -0.021732 0.120357 -0.141627 0.091463 -0.035378 0.155089 -0.256802 -0.148596 -0.043067 0.198048 -0.081299 0.002965 0.161809 -0.161556 -0.040355 0.037995 -0.174578 0.055578 -0.083100 -0.046109 0.028496 -0.135652 -0.104794 0.018749 -0.008858 -0.037774 0.205044 0.109354 0.205836 -0.056467 0.026903 -0.174817 -0.210803 0.000055 -0.018326 -0.055708 -0.176367 0.109339 0.117461 -0.103748 0.121581 -0.068958 0.126972 0.031509 0.108657 -0.076982 -0.173972 0.145535 -0.088769 -0.127984 0.171650 0.098978 -0.111698 0.037244 -0.111445 -0.068823 -0.052460 -0.000753 0.264753 0.108104 -0.082081 -0.096014 -0.078541 -0.035648 -0.008470 0.030891 -0.094174 -0.018321 -0.090462 0.165655 -0.121080 -0.166697 -0.048686 -0.158235 0.123564 -0.221541 -0.105318 -0.024523 0.013787 0.114478
10 -0.046105 -0.200218 0.086144 -0.025866 0.038871 -0.111861 0.105981 -0.003933 -0.081092 0.084016 -0.036012 0.178204 0.071146 -0.177248 -0.055980 -0.177897 -0.070535 -0.116782 -0.025219 -0.042840 0.228509 0.044071 0.142420 0.076636 -0.075577 -0.049709 -0.028400 0.091421 0.081418 0.183137 -0.005449 0.068318 -0.103360 0.123591 -0.161898 -0.094591 0.166205 0.058663 0.046505 -0.131269 -0.115794 0.080632 0.096724 0.097972 -0.151532 0.154465 -0.037849 -0.051106 -0.060596 0.077157 -0.054264 0.100675 0.002481 0.117418 -0.231174 -0.111321 -0.052942 0.105733 -0.125166 0.050847 0.116859 -0.126142 -0.097153 0.017186 -0.092905 -0.027910 -0.061573 -0.055289 -0.007770 -0.076052 -0.050795 -0.003892 0.032177 -0.024449 0.095441 0.041705 0.173663 -0.025351 0.035909 -0.065579 -0.157740 -0.076641 -0.005854 -0.102513 -0.110589 0.218620 -0.018311 -0.068971 0.026820 -0.087033 0.062882 0.092477 0.097286 -0.096844 -0.132323 0.172599 -0.110498 -0.015882 0.102256 0.015382 -0.129605 0.049841 -0.082971 -0.087223 -0.000309 0.014227 0.268762 0.093240 -0.051595 -0.038261 -0.071934 -0.107553 -0.028370 0.009675 -0.053212 -0.035712 -0.084959 0.177036 -0.080812 -0.109519 -0.073875 -0.178792 0.027589 -0.195246 -0.007448 0.064460 -0.040694 0.083558
27 -0.056277 -0.196061 0.105417 -0.032120 0.048286 -0.116810 0.132705 -0.043261 -0.136657 0.102803 -0.062469 0.168470 0.097607 -0.184119 -0.108291 -0.187531 -0.056318 -0.110851 -0.035251 -0.021729 0.251226 0.058226 0.164287 0.098208 -0.107224 -0.069042 -0.046716 0.113940 0.062529 0.206832 -0.009782 0.106231 -0.104628 0.115236 -0.194711 -0.089991 0.186328 0.063198 0.060559 -0.153906 -0.162767 0.120615 0.083704 0.078933 -0.137753 0.162077 -0.058033 -0.052960 -0.100272 0.079649 -0.021036 0.134074 0.010100 0.127453 -0.262502 -0.127518 -0.071609 0.090412 -0.161261 0.081625 0.118037 -0.132107 -0.138686 0.009452 -0.076665 -0.076330 -0.065230 -0.061460 -0.021453 -0.053647 -0.041183 -0.006565 0.053396 -0.029243 0.049764 0.006457 0.191377 -0.016141 0.045417 -0.025328 -0.154752 -0.121016 0.001093 -0.144902 -0.103833 0.309411 -0.077074 -0.061333 -0.019478 -0.107866 0.029947 0.134537 0.112089 -0.124564 -0.135099 0.211378 -0.132316 0.035835 0.091019 -0.026453 -0.164431 0.073146 -0.083615 -0.118113 0.030290 0.027426 0.326469 0.092702 -0.042755 -0.017054 -0.088741 -0.160629 -0.048386 0.000909 -0.046026 -0.056781 -0.100385 0.220327 -0.077564 -0.105959 -0.100097 -0.218815 -0.010097 -0.226972 0.023850 0.125928 -0.081026 0.086962
21 -0.052353 -0.184457 0.093472 -0.030298 0.036091 -0.113142 0.110408 -0.024329 -0.103070 0.094192 -0.047067 0.165352 0.082877 -0.180737 -0.076731 -0.174790 -0.062950 -0.107553 -0.025578 -0.028534 0.228047 0.047912 0.145193 0.080275 -0.086082 -0.055119 -0.032895 0.098807 0.072593 0.188320 -0.002803 0.084865 -0.102279 0.118619 -0.175276 -0.090968 0.168452 0.063446 0.056533 -0.132118 -0.132401 0.100011 0.083471 0.082094 -0.145856 0.149367 -0.049816 -0.048937 -0.076127 0.075376 -0.035327 0.111926 0.009157 0.115863 -0.239283 -0.112152 -0.059670 0.094054 -0.140862 0.065145 0.110307 -0.126502 -0.109406 0.015912 -0.077333 -0.051000 -0.058063 -0.060075 -0.013845 -0.065268 -0.040711 -0.008935 0.040729 -0.021889 0.072186 0.025309 0.171155 -0.020930 0.044256 -0.041648 -0.149343 -0.093206 -0.005919 -0.125767 -0.102484 0.250870 -0.047315 -0.062299 0.010415 -0.095337 0.049918 0.111008 0.094491 -0.105166 -0.127854 0.180104 -0.120236 0.012275 0.092377 -0.005048 -0.139263 0.056493 -0.081652 -0.094270 0.018164 0.020473 0.279922 0.085899 -0.044622 -0.032040 -0.076137 -0.121762 -0.036845 0.008628 -0.051879 -0.040288 -0.093180 0.186213 -0.073832 -0.098618 -0.082634 -0.191378 0.008374 -0.203378 0.010725 0.090023 -0.051905 0.076901
18 -0.045873 -0.221278 0.085054 -0.030090 0.038287 -0.128126 0.097338 0.016581 -0.066717 0.092429 -0.032503 0.194757 0.076595 -0.191955 -0.037963 -0.197110 -0.086698 -0.135509 -0.025664 -0.055868 0.248801 0.045039 0.154568 0.073062 -0.067622 -0.044934 -0.029338 0.099702 0.101287 0.199981 -0.001014 0.070887 -0.113988 0.134586 -0.160849 -0.109613 0.169768 0.068529 0.050300 -0.131195 -0.111098 0.080376 0.104905 0.107985 -0.182048 0.166415 -0.043764 -0.052293 -0.057043 0.088637 -0.074671 0.100154 -0.003036 0.137348 -0.248794 -0.121123 -0.053120 0.126570 -0.122836 0.042407 0.131746 -0.142263 -0.088151 0.019327 -0.106692 -0.011648 -0.063519 -0.054285 0.002168 -0.083399 -0.066439 0.001512 0.028331 -0.032499 0.117489 0.056068 0.188543 -0.028798 0.039830 -0.088663 -0.174174 -0.063031 -0.007303 -0.102927 -0.126408 0.207083 0.010572 -0.075676 0.044580 -0.081524 0.076473 0.082081 0.102531 -0.104677 -0.149120 0.171844 -0.113623 -0.033941 0.121237 0.027614 -0.131511 0.052715 -0.089899 -0.087042 -0.006615 0.013937 0.273305 0.095539 -0.058142 -0.055659 -0.082514 -0.098055 -0.029091 0.014751 -0.064327 -0.036712 -0.088658 0.174671 -0.087212 -0.125489 -0.072191 -0.183315 0.044246 -0.208913 -0.025754 0.047353 -0.032937 0.089143
16 -0.054014 -0.194282 0.099710 -0.027656 0.041918 -0.116827 0.120881 -0.027854 -0.111022 0.094054 -0.051897 0.172066 0.085462 -0.179697 -0.080873 -0.185518 -0.067337 -0.116159 -0.033486 -0.032011 0.235104 0.051956 0.154571 0.083120 -0.090565 -0.058398 -0.037002 0.102278 0.071287 0.192138 -0.009480 0.093726 -0.104112 0.115997 -0.180065 -0.089257 0.181791 0.060236 0.054933 -0.145001 -0.140524 0.105987 0.090639 0.085091 -0.145830 0.154035 -0.052297 -0.048500 -0.087798 0.082674 -0.034882 0.119005 0.008182 0.124057 -0.248001 -0.120047 -0.063019 0.099146 -0.147915 0.064651 0.120496 -0.136768 -0.117938 0.009921 -0.084557 -0.056041 -0.061639 -0.056101 -0.016220 -0.066574 -0.042546 -0.009790 0.042987 -0.028087 0.073410 0.022033 0.186361 -0.021258 0.041673 -0.043722 -0.150881 -0.101851 -0.002079 -0.130651 -0.102461 0.273125 -0.051455 -0.059216 0.006198 -0.098300 0.042745 0.118868 0.100914 -0.113170 -0.132076 0.194857 -0.121181 0.013670 0.093522 -0.010167 -0.143080 0.066156 -0.082482 -0.106486 0.015045 0.018657 0.297249 0.093194 -0.040252 -0.027563 -0.086845 -0.131486 -0.043861 0.008079 -0.051117 -0.045476 -0.095031 0.202656 -0.075926 -0.111826 -0.088223 -0.201805 0.003538 -0.215119 0.012567 0.099841 -0.062720 0.088578
19 -0.053248 -0.172970 0.104943 -0.028105 0.044422 -0.106668 0.122251 -0.054861 -0.128299 0.095776 -0.062915 0.152327 0.093645 -0.168995 -0.109761 -0.164475 -0.052297 -0.093547 -0.031512 -0.004334 0.224559 0.050114 0.149496 0.090022 -0.104424 -0.059110 -0.042465 0.101406 0.049613 0.184953 -0.010740 0.109294 -0.089625 0.101260 -0.186432 -0.078307 0.170306 0.061384 0.060122 -0.137665 -0.154477 0.117796 0.072292 0.062420 -0.119741 0.146417 -0.058285 -0.048479 -0.098212 0.068256 -0.014557 0.126540 0.012135 0.107043 -0.234325 -0.110846 -0.070411 0.073973 -0.154349 0.076933 0.106701 -0.125813 -0.128053 0.012397 -0.062666 -0.084892 -0.050748 -0.061107 -0.023988 -0.042855 -0.025917 -0.011097 0.052698 -0.021046 0.031222 -0.004119 0.166723 -0.006863 0.039939 -0.014082 -0.130005 -0.115496 0.003299 -0.144948 -0.087794 0.290736 -0.086103 -0.046611 -0.028295 -0.100883 0.022297 0.134850 0.104992 -0.111979 -0.113381 0.193245 -0.120757 0.048090 0.072900 -0.033869 -0.144207 0.069841 -0.079498 -0.106432 0.032671 0.025928 0.294115 0.083033 -0.031762 -0.013895 -0.084716 -0.153486 -0.044627 -0.001916 -0.035986 -0.050014 -0.087498 0.203439 -0.065240 -0.088155 -0.091742 -0.206970 -0.021715 -0.203188 0.031516 0.122219 -0.088497 0.071683
22 -0.039759 -0.219376 0.080705 -0.028014 0.033270 -0.125814 0.091811 0.021341 -0.060863 0.082782 -0.028003 0.189318 0.068951 -0.186727 -0.025745 -0.189507 -0.086864 -0.137069 -0.017266 -0.058979 0.237181 0.041672 0.145911 0.066266 -0.065700 -0.040474 -0.027962 0.091035 0.103120 0.192433 0.000983 0.055543 -0.115897 0.129379 -0.152966 -0.108699 0.160787 0.065875 0.044387 -0.129058 -0.093268 0.063193 0.103265 0.113596 -0.176367 0.161896 -0.039043 -0.049327 -0.048806 0.087597 -0.080772 0.092287 -0.011802 0.130738 -0.236069 -0.118756 -0.046879 0.135768 -0.106627 0.035124 0.127605 -0.132414 -0.076388 0.023163 -0.112011 -0.001116 -0.067637 -0.048362 0.006988 -0.086592 -0.069470 0.006616 0.019973 -0.030812 0.124339 0.060655 0.177109 -0.030606 0.038559 -0.095526 -0.171924 -0.056367 -0.008679 -0.092114 -0.122514 0.182293 0.023767 -0.078840 0.056893 -0.077725 0.081222 0.071514 0.094142 -0.099565 -0.142962 0.161925 -0.108169 -0.044201 0.123788 0.032426 -0.123899 0.047242 -0.086342 -0.079244 -0.011264 0.013746 0.263494 0.098855 -0.060291 -0.055472 -0.073276 -0.084727 -0.020294 0.020841 -0.066896 -0.031995 -0.087883 0.167319 -0.092657 -0.124367 -0.065346 -0.171932 0.053755 -0.202527 -0.033903 0.041198 -0.018083 0.091706
13 -0.039953 -0.211313 0.079665 -0.030177 0.031187 -0.120198 0.090404 0.019846 -0.053853 0.083201 -0.026827 0.180119 0.065944 -0.181627 -0.026368 -0.183651 -0.084469 -0.132080 -0.019047 -0.063525 0.227739 0.040056 0.132429 0.065232 -0.063232 -0.042402 -0.022032 0.092155 0.097159 0.182543 -0.002220 0.057472 -0.109722 0.122054 -0.146481 -0.104930 0.159984 0.068478 0.044641 -0.124469 -0.092035 0.064563 0.103304 0.108168 -0.173801 0.157679 -0.033291 -0.047368 -0.050159 0.088313 -0.079280 0.094181 -0.007385 0.128722 -0.232133 -0.118512 -0.049218 0.125126 -0.104028 0.033230 0.123647 -0.128327 -0.076885 0.017182 -0.108959 -0.005344 -0.064125 -0.049618 0.004431 -0.089516 -0.067783 0.002010 0.020577 -0.029989 0.118023 0.053212 0.173418 -0.033743 0.032298 -0.095386 -0.164385 -0.055599 -0.011106 -0.088670 -0.124032 0.178388 0.022970 -0.074462 0.050257 -0.073994 0.080883 0.069792 0.090594 -0.095346 -0.138333 0.152815 -0.100678 -0.049165 0.114437 0.036113 -0.116005 0.044328 -0.085272 -0.079087 -0.012525 0.007435 0.256642 0.091009 -0.056889 -0.057217 -0.071257 -0.082569 -0.021889 0.020372 -0.067777 -0.033084 -0.083715 0.164781 -0.084918 -0.123131 -0.062938 -0.159997 0.053237 -0.191574 -0.035395 0.040432 -0.020051 0.089488
23 -0.051286 -0.204913 0.092357 -0.025318 0.040124 -0.119285 0.114139 -0.009669 -0.094703 0.093552 -0.045224 0.182776 0.084984 -0.192965 -0.072970 -0.188030 -0.073838 -0.120214 -0.026494 -0.036662 0.240155 0.046922 0.150709 0.083706 -0.083475 -0.057095 -0.039610 0.096497 0.076625 0.201276 -0.005193 0.086733 -0.110056 0.122041 -0.179747 -0.100297 0.181685 0.065815 0.049932 -0.140254 -0.133437 0.098381 0.098435 0.095726 -0.159411 0.161074 -0.048547 -0.048926 -0.079108 0.082646 -0.048558 0.114787 0.002838 0.123120 -0.248270 -0.127707 -0.064238 0.109530 -0.137027 0.054960 0.125091 -0.136124 -0.106520 0.017540 -0.091825 -0.044959 -0.060747 -0.053009 -0.006908 -0.065739 -0.050300 -0.001427 0.039563 -0.025432 0.081204 0.033073 0.185812 -0.021239 0.044960 -0.056804 -0.154817 -0.088594 -0.000468 -0.121756 -0.114431 0.251302 -0.032968 -0.065410 0.012600 -0.095321 0.055684 0.109306 0.101965 -0.109078 -0.141041 0.184830 -0.114398 -0.003680 0.101608 0.008672 -0.142833 0.058494 -0.085355 -0.101761 0.007623 0.014541 0.288190 0.091442 -0.044740 -0.035447 -0.085057 -0.124517 -0.036454 0.005852 -0.057992 -0.043906 -0.094897 0.196553 -0.080822 -0.112264 -0.080030 -0.193035 0.018810 -0.213245 -0.003381 0.080619 -0.054261 0.087758
15 -0.055632 -0.191848 0.098216 -0.030034 0.043603 -0.112591 0.117289 -0.030175 -0.107228 0.091208 -0.046895 0.166923 0.088223 -0.177799 -0.080932 -0.180158 -0.067587 -0.112735 -0.033359 -0.031437 0.237505 0.052736 0.151739 0.084227 -0.095674 -0.057779 -0.040848 0.100898 0.071962 0.192124 -0.008829 0.096134 -0.097853 0.114741 -0.177189 -0.089963 0.173553 0.062816 0.058178 -0.137499 -0.139671 0.102612 0.085495 0.082105 -0.144124 0.156390 -0.058462 -0.049116 -0.085466 0.075653 -0.038799 0.119847 0.006330 0.123715 -0.249452 -0.123680 -0.065496 0.093127 -0.144869 0.068365 0.121506 -0.128502 -0.114742 0.009456 -0.083904 -0.051446 -0.059622 -0.058951 -0.011037 -0.057076 -0.042637 -0.007058 0.043885 -0.029857 0.065865 0.020925 0.179606 -0.017908 0.038224 -0.046940 -0.150685 -0.096086 -0.001359 -0.131337 -0.105853 0.262656 -0.052921 -0.064414 0.003876 -0.094006 0.046575 0.118525 0.107585 -0.116345 -0.132723 0.191668 -0.119904 0.019045 0.096013 -0.003126 -0.143378 0.064219 -0.087894 -0.100923 0.019415 0.018325 0.300405 0.094776 -0.042884 -0.032735 -0.084791 -0.136223 -0.040962 0.003544 -0.054767 -0.045615 -0.090748 0.200793 -0.077568 -0.105679 -0.082819 -0.204480 0.008859 -0.208364 0.005489 0.098305 -0.063233 0.087177
17 -0.036972 -0.354570 0.072240 -0.020416 0.020318 -0.188397 0.079025 0.138464 0.063150 0.094938 0.028274 0.311021 0.051295 -0.251051 0.081415 -0.259581 -0.166587 -0.246213 -0.012458 -0.154017 0.302642 0.019040 0.166490 0.043240 -0.006636 -0.032619 -0.023640 0.082329 0.179436 0.238832 0.023775 0.012888 -0.156236 0.167041 -0.137317 -0.175390 0.191502 0.112953 0.022729 -0.140573 -0.046403 0.015518 0.182749 0.194422 -0.319449 0.223747 0.004574 -0.058111 0.005755 0.147796 -0.202183 0.092451 -0.059478 0.173058 -0.271159 -0.171459 -0.043804 0.256915 -0.048425 -0.032320 0.203600 -0.188310 -0.012927 0.045462 -0.224561 0.105746 -0.098133 -0.044290 0.045999 -0.167874 -0.139119 0.031359 -0.029362 -0.046423 0.280427 0.159707 0.229065 -0.074247 0.024444 -0.248710 -0.251232 0.044968 -0.015170 -0.022809 -0.220922 0.048332 0.193131 -0.131169 0.182515 -0.062456 0.170159 0.007391 0.125715 -0.064485 -0.206153 0.147227 -0.073244 -0.193350 0.224006 0.150540 -0.107173 0.028820 -0.134560 -0.058587 -0.087919 -0.012279 0.274224 0.129178 -0.104795 -0.121748 -0.081252 -0.002114 0.009568 0.043938 -0.117870 -0.007445 -0.095865 0.170028 -0.150930 -0.208624 -0.032612 -0.152068 0.185047 -0.243878 -0.168418 -0.071497 0.044339 0.143124
12 -0.047818 -0.217611 0.080679 -0.029464 0.031048 -0.122846 0.088949 0.016034 -0.058433 0.085946 -0.022171 0.190225 0.066151 -0.178224 -0.029600 -0.182897 -0.087744 -0.132203 -0.017888 -0.064051 0.231807 0.043623 0.141278 0.063204 -0.066246 -0.045255 -0.024486 0.092681 0.096818 0.184832 0.001739 0.061730 -0.111674 0.124742 -0.147339 -0.099283 0.158132 0.069825 0.044901 -0.122999 -0.097446 0.068295 0.105308 0.103898 -0.175436 0.159658 -0.033007 -0.049107 -0.054103 0.084803 -0.079076 0.097057 -0.009577 0.123395 -0.235587 -0.121576 -0.048535 0.128305 -0.108019 0.038284 0.127593 -0.129950 -0.080178 0.021238 -0.114062 -0.004718 -0.060215 -0.048628 0.005511 -0.080097 -0.061016 0.005615 0.022243 -0.027005 0.115056 0.055266 0.177895 -0.027738 0.034823 -0.087579 -0.163859 -0.052906 -0.011975 -0.091458 -0.123926 0.184713 0.017891 -0.074352 0.048114 -0.080358 0.074634 0.076272 0.093477 -0.094395 -0.135805 0.154638 -0.098284 -0.045885 0.118005 0.034636 -0.124218 0.043013 -0.086626 -0.079592 -0.010698 0.006902 0.257862 0.092376 -0.052961 -0.056727 -0.078754 -0.084995 -0.022663 0.018636 -0.063316 -0.028577 -0.083302 0.169083 -0.090826 -0.124065 -0.065966 -0.167886 0.051635 -0.192220 -0.035531 0.041288 -0.029729 0.088521
