34 128
34 -0.150849 -0.192929 0.129519 0.031496 0.103516 -0.024764 0.128164 -0.044246 -0.045846 -0.025149 -0.055430 0.082027 -0.015307 -0.198986 -0.112708 -0.178105 -0.007993 -0.013968 0.021084 0.016458 0.147078 0.020097 0.079163 0.114974 -0.042751 -0.071112 -0.005620 0.047233 -0.041178 0.111843 -0.105498 0.114657 -0.086670 0.126292 -0.124425 -0.096993 0.129951 0.015239 0.051811 -0.062288 -0.194210 0.048625 0.142379 0.137991 -0.001050 0.099964 -0.031306 -0.144670 -0.132623 0.085668 -0.025017 0.189353 0.083097 -0.018461 -0.197043 -0.141850 -0.165146 -0.034065 -0.138046 0.067174 0.102433 -0.156335 -0.118062 0.084907 0.071091 -0.158989 0.048477 -0.051695 0.012927 -0.030421 0.099596 -0.062779 0.058802 0.030923 -0.024930 -0.075808 0.184233 0.020161 0.037635 0.057864 -0.039729 -0.164464 -0.051006 -0.239117 -0.101449 0.231240 -0.168122 -0.028331 -0.124798 -0.038387 0.069208 0.101814 0.062339 0.004075 -0.124019 0.157256 -0.170306 0.049356 0.117383 0.045443 -0.232593 0.047558 -0.111181 -0.120513 0.019835 -0.001297 0.192309 0.079248 -0.004446 -0.077164 -0.053890 -0.159323 -0.091400 -0.117514 0.001816 0.003092 -0.093348 0.195567 -0.135269 0.073818 -0.082798 -0.123218 -0.046957 -0.125779 0.001995 0.079876 -0.057301 0.028454
1 -0.068141 -0.256066 0.060944 0.038565 0.031039 -0.070235 0.145240 0.025494 0.089320 -0.024339 -0.013224 0.151846 -0.001955 -0.151163 0.010315 -0.226427 -0.067962 -0.125484 0.034982 -0.001595 0.193141 -0.006071 0.064612 0.113828 0.063115 -0.045165 0.000859 0.025555 -0.013063 0.099029 -0.161782 0.088537 -0.128167 0.122155 -0.079818 -0.162037 0.105411 0.043296 0.041211 -0.096038 -0.160658 -0.017349 0.160862 0.211791 -0.088773 0.100234 -0.012211 -0.138719 -0.031031 0.099030 -0.177744 0.203464 0.102797 0.003971 -0.147184 -0.197647 -0.158536 -0.010185 -0.037823 -0.055638 0.159568 -0.172556 -0.016016 0.077847 -0.022358 -0.062427 0.036092 0.008970 -0.004715 -0.129788 0.003527 -0.064605 0.038924 -0.058345 0.059933 -0.067305 0.176084 -0.024072 -0.001771 -0.096949 -0.079797 -0.163371 -0.075967 -0.177511 -0.191935 0.062982 -0.010816 -0.035874 -0.016651 -0.008257 0.149258 0.057272 0.117721 -0.024566 -0.251061 0.139698 -0.128313 -0.141648 0.182325 0.171315 -0.213271 0.023408 -0.167816 -0.170941 -0.061906 -0.046065 0.222176 0.126790 -0.071544 -0.139047 -0.104291 -0.083625 -0.023139 -0.111512 -0.108269 0.084854 -0.034130 0.262797 -0.226695 0.038260 -0.059802 -0.052111 0.079502 -0.199045 -0.187649 0.034942 0.016716 0.158399
33 -0.172312 -0.203452 0.147756 0.036747 0.120876 -0.018330 0.132784 -0.052968 -0.060107 -0.023071 -0.062674 0.076731 -0.021526 -0.218032 -0.132603 -0.172955 -0.003663 0.004009 0.008116 0.013582 0.151150 0.023254 0.084173 0.121145 -0.062794 -0.081973 -0.014744 0.054213 -0.053449 0.114860 -0.102969 0.130021 -0.076513 0.127402 -0.141691 -0.093305 0.131483 0.010918 0.049595 -0.062592 -0.218340 0.074062 0.148839 0.121788 0.010264 0.111461 -0.034223 -0.153841 -0.162200 0.090870 0.000879 0.214382 0.085248 -0.032866 -0.214877 -0.136729 -0.184860 -0.039174 -0.153111 0.096031 0.105781 -0.174833 -0.140658 0.093220 0.095481 -0.193302 0.061547 -0.063766 0.012379 -0.015319 0.131831 -0.068821 0.069142 0.048951 -0.051352 -0.082607 0.203492 0.019205 0.044189 0.086940 -0.025644 -0.170910 -0.051917 -0.262777 -0.097742 0.270524 -0.210071 -0.023713 -0.149339 -0.045288 0.065404 0.120987 0.059795 0.016246 -0.100394 0.174708 -0.183254 0.077266 0.120059 0.022388 -0.247342 0.050030 -0.106961 -0.117462 0.040089 0.001459 0.197132 0.071261 0.010097 -0.068769 -0.053367 -0.179489 -0.113429 -0.137450 0.030172 -0.006843 -0.108302 0.183627 -0.129681 0.081970 -0.089811 -0.135171 -0.066993 -0.119311 0.041157 0.087330 -0.081746 0.001480
3 -0.123751 -0.202945 0.104999 0.028320 0.078764 -0.034507 0.132701 -0.023505 -0.007937 -0.026245 -0.038407 0.101701 -0.015975 -0.182424 -0.073140 -0.189882 -0.026159 -0.049523 0.020568 0.007169 0.158188 0.015694 0.070344 0.118886 -0.010053 -0.061117 -0.007213 0.044461 -0.027047 0.107048 -0.125516 0.101711 -0.098362 0.127918 -0.113689 -0.120487 0.119598 0.024530 0.048651 -0.069750 -0.181758 0.023487 0.144449 0.160206 -0.026806 0.102846 -0.024685 -0.141878 -0.106799 0.085033 -0.067955 0.187501 0.085378 -0.012084 -0.182249 -0.155272 -0.162893 -0.028995 -0.108742 0.036308 0.115816 -0.157659 -0.083049 0.084462 0.044091 -0.127524 0.048778 -0.027607 0.004929 -0.064845 0.073366 -0.061013 0.054588 0.002305 0.001820 -0.072595 0.187146 0.003969 0.025700 0.009888 -0.050392 -0.160735 -0.061143 -0.219427 -0.128981 0.181091 -0.118893 -0.030996 -0.091534 -0.032373 0.096065 0.089699 0.077440 -0.006430 -0.163903 0.152239 -0.159215 -0.007953 0.138375 0.082778 -0.226936 0.035840 -0.131967 -0.133205 0.000783 -0.012660 0.198708 0.093766 -0.022672 -0.100738 -0.067774 -0.135043 -0.070188 -0.118447 -0.030733 0.032153 -0.077406 0.215388 -0.159450 0.060671 -0.077418 -0.105836 -0.010234 -0.150028 -0.053792 0.064235 -0.034003 0.068740
2 -0.094562 -0.231434 0.085742 0.029579 0.062516 -0.052969 0.151631 -0.002740 0.027575 -0.025536 -0.033715 0.141002 -0.005933 -0.181376 -0.037611 -0.220405 -0.057025 -0.073984 0.026948 0.003190 0.187307 0.010442 0.076101 0.119995 0.010871 -0.049861 -0.001420 0.041405 -0.019630 0.109201 -0.148622 0.101312 -0.124574 0.140924 -0.103953 -0.140359 0.120234 0.025263 0.050600 -0.081420 -0.172748 0.010255 0.155637 0.189164 -0.050967 0.107363 -0.026191 -0.147208 -0.078012 0.085232 -0.120767 0.189918 0.102967 -0.001838 -0.175338 -0.175656 -0.163681 -0.019843 -0.084559 -0.003249 0.137374 -0.165737 -0.058802 0.074630 0.021086 -0.096591 0.041696 -0.019858 0.000021 -0.092984 0.042566 -0.065838 0.059553 -0.030114 0.027993 -0.065869 0.192843 -0.010503 0.013853 -0.033169 -0.064466 -0.176262 -0.079244 -0.212009 -0.160656 0.143441 -0.074282 -0.037749 -0.057681 -0.024795 0.127764 0.078314 0.094425 -0.023702 -0.213062 0.147224 -0.153413 -0.070802 0.152717 0.128679 -0.227662 0.022144 -0.150420 -0.160132 -0.027958 -0.039580 0.223476 0.116358 -0.054650 -0.127073 -0.093477 -0.119791 -0.052326 -0.126862 -0.070765 0.055296 -0.067972 0.253220 -0.207259 0.054679 -0.076907 -0.092514 0.032584 -0.182832 -0.105889 0.056664 -0.008198 0.110474
32 -0.151523 -0.190820 0.120184 0.025928 0.098918 -0.019406 0.120777 -0.045124 -0.042849 -0.022597 -0.052215 0.081542 -0.018162 -0.191176 -0.108780 -0.164006 -0.006091 -0.014855 0.011415 0.014565 0.148369 0.025740 0.073828 0.114544 -0.050835 -0.072594 -0.016171 0.052834 -0.043175 0.107832 -0.106185 0.117154 -0.075882 0.124273 -0.134970 -0.100763 0.129761 0.018789 0.049773 -0.069269 -0.206912 0.051838 0.143055 0.136611 -0.005320 0.108270 -0.032712 -0.141694 -0.139437 0.080918 -0.026519 0.201582 0.079736 -0.019259 -0.204703 -0.141734 -0.171279 -0.034652 -0.141982 0.074125 0.108515 -0.166226 -0.119495 0.092730 0.066884 -0.162506 0.049621 -0.046180 0.007716 -0.036562 0.102466 -0.059181 0.064776 0.029044 -0.030381 -0.074941 0.190104 0.017906 0.034121 0.057265 -0.037954 -0.166501 -0.049396 -0.240227 -0.109223 0.238043 -0.174113 -0.029875 -0.121796 -0.046547 0.076385 0.107389 0.070582 0.004591 -0.117744 0.161228 -0.171109 0.048057 0.119560 0.039109 -0.236140 0.043404 -0.118210 -0.119405 0.030979 0.003983 0.200106 0.080205 -0.007678 -0.077150 -0.056026 -0.166251 -0.092480 -0.122496 0.007556 0.006232 -0.098460 0.194340 -0.133668 0.069899 -0.085373 -0.130285 -0.051087 -0.126451 0.011774 0.074282 -0.067545 0.029042
4 -0.080792 -0.223118 0.069354 0.033102 0.051246 -0.058655 0.140315 0.009654 0.055311 -0.028121 -0.018775 0.141084 -0.004551 -0.160379 -0.017164 -0.211974 -0.056814 -0.097529 0.028709 0.005526 0.183109 0.004263 0.062768 0.112180 0.032963 -0.046864 -0.005805 0.033604 -0.014772 0.099589 -0.150387 0.089851 -0.118249 0.125220 -0.093431 -0.147553 0.114258 0.038091 0.043579 -0.080573 -0.161400 -0.005735 0.154393 0.194407 -0.062463 0.098390 -0.019284 -0.139545 -0.061740 0.083958 -0.135284 0.187179 0.098957 -0.000053 -0.157042 -0.176751 -0.153706 -0.017296 -0.058733 -0.027373 0.144022 -0.164550 -0.034678 0.075438 0.005068 -0.076523 0.035179 -0.004080 -0.001322 -0.108094 0.026581 -0.060104 0.049569 -0.043824 0.042298 -0.067157 0.178382 -0.012256 0.001740 -0.055370 -0.064895 -0.166812 -0.073121 -0.187365 -0.165707 0.103082 -0.040440 -0.036941 -0.036175 -0.016391 0.128531 0.065311 0.096492 -0.022943 -0.218389 0.140280 -0.139999 -0.097174 0.159857 0.138777 -0.214761 0.023142 -0.149841 -0.151337 -0.043316 -0.037570 0.209672 0.116485 -0.059842 -0.129018 -0.088120 -0.100897 -0.037193 -0.113946 -0.082349 0.069469 -0.051593 0.246165 -0.202151 0.045025 -0.062417 -0.071457 0.045667 -0.184972 -0.139429 0.046330 0.003969 0.129044
24 -0.145518 -0.191245 0.127460 0.032241 0.103285 -0.022741 0.123874 -0.041389 -0.038665 -0.022928 -0.050175 0.083502 -0.014795 -0.201328 -0.110194 -0.174852 -0.010716 -0.014519 0.017335 0.013784 0.148404 0.024104 0.075290 0.120211 -0.044365 -0.066712 -0.013741 0.045898 -0.045868 0.111906 -0.109448 0.115788 -0.085526 0.120135 -0.127148 -0.100589 0.130216 0.011134 0.049390 -0.070394 -0.199677 0.054859 0.143741 0.138977 -0.002522 0.107549 -0.037508 -0.141461 -0.136855 0.082373 -0.022235 0.200308 0.077764 -0.017000 -0.195222 -0.135616 -0.166435 -0.031127 -0.139337 0.068640 0.105711 -0.168228 -0.115325 0.087988 0.067405 -0.165090 0.051938 -0.046754 0.004749 -0.031015 0.105329 -0.059659 0.060750 0.030878 -0.029592 -0.078757 0.186675 0.012447 0.034315 0.060818 -0.032453 -0.163534 -0.053069 -0.236494 -0.108106 0.228410 -0.175293 -0.023450 -0.119700 -0.041429 0.073113 0.104188 0.068077 0.006070 -0.118533 0.163758 -0.168658 0.047188 0.120231 0.041791 -0.237047 0.048011 -0.107189 -0.117720 0.022958 0.002352 0.193443 0.082193 -0.006954 -0.073928 -0.053934 -0.164582 -0.092602 -0.124545 0.001545 0.002617 -0.096629 0.186775 -0.132595 0.076234 -0.083228 -0.125814 -0.050651 -0.130616 0.013344 0.080107 -0.061851 0.028471
14 -0.100643 -0.236401 0.087818 0.032629 0.062125 -0.047541 0.145252 -0.007475 0.034432 -0.023569 -0.033793 0.133250 -0.013158 -0.171814 -0.035770 -0.207864 -0.046392 -0.082153 0.025106 0.002554 0.184439 0.009509 0.071273 0.119810 0.016319 -0.057612 -0.003114 0.037279 -0.031867 0.111115 -0.139365 0.101568 -0.113041 0.127845 -0.100567 -0.139711 0.117324 0.034429 0.041719 -0.083505 -0.181130 0.013123 0.155772 0.185090 -0.052897 0.111429 -0.017542 -0.141672 -0.077799 0.095962 -0.119903 0.202725 0.097579 -0.006905 -0.170857 -0.180430 -0.169828 -0.020817 -0.079325 -0.005872 0.139330 -0.171639 -0.052493 0.079339 0.014989 -0.103053 0.044929 -0.018886 0.002547 -0.096525 0.042451 -0.061012 0.045014 -0.020122 0.029334 -0.070512 0.186131 -0.006865 0.009481 -0.037440 -0.065855 -0.166018 -0.068565 -0.202697 -0.165465 0.140894 -0.077672 -0.036063 -0.062916 -0.024620 0.123997 0.075543 0.100282 -0.013684 -0.204932 0.155593 -0.150899 -0.064711 0.162079 0.123294 -0.230288 0.029588 -0.156031 -0.154017 -0.031172 -0.032984 0.222398 0.114095 -0.048877 -0.122879 -0.091836 -0.120700 -0.057132 -0.124730 -0.062222 0.054674 -0.066370 0.241016 -0.198117 0.055881 -0.072777 -0.087644 0.033096 -0.179756 -0.110101 0.054265 -0.016224 0.108365
7 -0.048161 -0.260984 0.036154 0.049382 0.012229 -0.062892 0.157742 0.026099 0.115481 -0.023473 -0.005684 0.156851 -0.009713 -0.127550 0.037942 -0.214359 -0.071998 -0.148931 0.015682 -0.005105 0.192452 -0.014927 0.062597 0.106124 0.084923 -0.063473 -0.012205 0.003577 -0.026270 0.095519 -0.144853 0.082477 -0.117609 0.092875 -0.071594 -0.155764 0.102189 0.056790 0.020317 -0.099276 -0.159015 -0.007204 0.155427 0.200881 -0.104665 0.108110 0.008535 -0.128991 -0.015781 0.103103 -0.187101 0.215538 0.103177 -0.002306 -0.128136 -0.204363 -0.154398 -0.018817 -0.001998 -0.067437 0.162334 -0.163504 0.011952 0.079939 -0.037606 -0.054353 0.034594 0.020760 -0.000299 -0.149329 -0.008677 -0.053979 0.011782 -0.062412 0.070865 -0.066898 0.154550 -0.022248 -0.019884 -0.116432 -0.082520 -0.137187 -0.072511 -0.146053 -0.199015 0.035417 0.008503 -0.026113 -0.013734 -0.000629 0.158023 0.048568 0.132448 -0.016285 -0.248308 0.144841 -0.103657 -0.163785 0.183552 0.176281 -0.198950 0.024051 -0.189300 -0.177468 -0.078701 -0.063584 0.219224 0.122966 -0.064017 -0.140550 -0.107101 -0.058398 -0.022832 -0.120999 -0.116776 0.098514 -0.022624 0.252142 -0.224926 0.037723 -0.054058 -0.032583 0.112977 -0.202066 -0.219078 0.030917 0.027001 0.176156
28 -0.131203 -0.192466 0.107932 0.026202 0.083234 -0.025490 0.125043 -0.033734 -0.018884 -0.023640 -0.040980 0.097947 -0.015196 -0.177499 -0.084710 -0.177626 -0.023560 -0.037557 0.019720 0.011951 0.151654 0.017146 0.071646 0.112303 -0.027623 -0.063094 -0.012585 0.043473 -0.032686 0.104364 -0.113740 0.111022 -0.085407 0.123597 -0.117256 -0.111457 0.122983 0.023666 0.048375 -0.066991 -0.187757 0.034560 0.142975 0.147771 -0.020979 0.102496 -0.031983 -0.137821 -0.117861 0.079578 -0.057438 0.190796 0.086942 -0.018849 -0.181740 -0.148009 -0.163535 -0.035152 -0.120227 0.047011 0.113213 -0.160261 -0.089978 0.084374 0.052372 -0.137022 0.045043 -0.033540 0.004651 -0.054286 0.080723 -0.057952 0.053902 0.008066 -0.009141 -0.070546 0.180932 0.013395 0.022353 0.029776 -0.044795 -0.161556 -0.053775 -0.221503 -0.121658 0.199358 -0.135098 -0.028748 -0.100341 -0.034379 0.089023 0.092359 0.071606 -0.004571 -0.139976 0.149518 -0.157599 0.013261 0.127664 0.064740 -0.228408 0.042450 -0.127979 -0.127815 0.010846 -0.009193 0.199698 0.091185 -0.015008 -0.096162 -0.063521 -0.142098 -0.083071 -0.121557 -0.018323 0.019031 -0.087020 0.202662 -0.151306 0.061165 -0.076991 -0.111910 -0.021620 -0.137350 -0.033580 0.064787 -0.044562 0.054408
8 -0.101444 -0.218015 0.093442 0.030660 0.067282 -0.043789 0.140526 -0.010793 0.015025 -0.022275 -0.036455 0.122163 -0.012924 -0.176453 -0.046491 -0.203995 -0.040936 -0.061174 0.031345 0.007909 0.168343 0.012183 0.068097 0.110950 0.002067 -0.047163 -0.001436 0.043096 -0.026661 0.107435 -0.137832 0.099284 -0.110077 0.131590 -0.102803 -0.129223 0.119981 0.023043 0.049890 -0.072014 -0.169689 0.014763 0.143647 0.174734 -0.035863 0.104944 -0.027240 -0.140527 -0.087552 0.085306 -0.099304 0.181962 0.094797 -0.002773 -0.172169 -0.160778 -0.160566 -0.023527 -0.090996 0.004291 0.123355 -0.162055 -0.068077 0.076795 0.030627 -0.111461 0.043987 -0.024615 0.002081 -0.080697 0.050046 -0.063283 0.052883 -0.015345 0.016712 -0.067508 0.179264 -0.004401 0.015759 -0.013732 -0.052711 -0.169741 -0.071361 -0.205490 -0.146968 0.154412 -0.085058 -0.033484 -0.068701 -0.029033 0.111869 0.074997 0.083997 -0.014899 -0.185134 0.140296 -0.151696 -0.050076 0.139064 0.100729 -0.217362 0.023903 -0.138410 -0.143896 -0.014867 -0.029894 0.206433 0.099572 -0.043455 -0.113698 -0.081224 -0.121658 -0.054578 -0.117440 -0.055939 0.046641 -0.071878 0.226797 -0.183446 0.055801 -0.076022 -0.096506 0.016560 -0.161577 -0.078489 0.055399 -0.016584 0.086649
9 -0.116965 -0.197038 0.096244 0.028108 0.078007 -0.033575 0.128816 -0.021351 0.001221 -0.023801 -0.038406 0.107454 -0.013993 -0.177766 -0.069014 -0.181107 -0.030828 -0.040081 0.017572 0.009209 0.152395 0.017428 0.071787 0.108565 -0.015416 -0.056431 -0.008312 0.037301 -0.033853 0.103759 -0.117280 0.105569 -0.095704 0.118828 -0.104771 -0.114537 0.117541 0.020771 0.042119 -0.065290 -0.179436 0.027731 0.141420 0.153126 -0.026963 0.098519 -0.025253 -0.137803 -0.103911 0.078619 -0.069198 0.186243 0.083658 -0.012776 -0.170238 -0.148881 -0.159450 -0.026553 -0.102978 0.029068 0.113442 -0.157323 -0.084093 0.078720 0.045186 -0.125782 0.047807 -0.032615 0.003132 -0.059073 0.072516 -0.057822 0.056866 0.001782 0.001668 -0.069244 0.172593 0.005034 0.018897 0.012835 -0.042201 -0.157194 -0.063058 -0.213345 -0.127038 0.172262 -0.115740 -0.029139 -0.087428 -0.030073 0.094248 0.083674 0.078510 -0.000110 -0.153300 0.141239 -0.148115 -0.009236 0.129022 0.080435 -0.218899 0.029715 -0.126026 -0.128015 -0.000769 -0.018604 0.190082 0.091976 -0.029498 -0.097270 -0.065670 -0.130310 -0.066321 -0.120002 -0.028330 0.026935 -0.079204 0.206493 -0.158378 0.063598 -0.075078 -0.101051 -0.009485 -0.142152 -0.047701 0.064766 -0.035107 0.063593
30 -0.165183 -0.202606 0.141919 0.035877 0.115251 -0.016885 0.137421 -0.055378 -0.063782 -0.021737 -0.067836 0.080740 -0.021510 -0.222864 -0.137485 -0.183510 -0.003091 0.000723 0.008928 0.017368 0.155560 0.023890 0.089067 0.123231 -0.059971 -0.082518 -0.011088 0.057158 -0.056818 0.120188 -0.108868 0.127659 -0.083079 0.129477 -0.144147 -0.093824 0.138034 0.011775 0.056983 -0.071770 -0.221829 0.070357 0.154001 0.138138 0.009970 0.114047 -0.037109 -0.161235 -0.164817 0.094589 -0.004404 0.218197 0.087669 -0.032702 -0.217227 -0.142312 -0.191403 -0.035964 -0.158193 0.094056 0.108434 -0.181568 -0.138870 0.095389 0.095967 -0.193594 0.057795 -0.063333 0.012787 -0.022183 0.129495 -0.067505 0.071069 0.044270 -0.046530 -0.087500 0.210167 0.022191 0.044527 0.089382 -0.034856 -0.179154 -0.059147 -0.267403 -0.102476 0.277074 -0.213242 -0.023870 -0.150970 -0.046632 0.069583 0.116219 0.063325 0.017112 -0.108038 0.176486 -0.189771 0.079390 0.122467 0.025996 -0.250390 0.052282 -0.110834 -0.129452 0.037101 0.002460 0.205370 0.076887 0.000217 -0.071300 -0.058722 -0.188290 -0.115895 -0.140335 0.028364 -0.008387 -0.115101 0.194875 -0.137367 0.089559 -0.098515 -0.138272 -0.069186 -0.125101 0.039622 0.092526 -0.074597 0.009529
6 -0.059014 -0.284840 0.050851 0.054973 0.021125 -0.071691 0.170539 0.028577 0.113282 -0.025140 -0.004980 0.169011 -0.011084 -0.140200 0.035912 -0.235328 -0.080744 -0.154955 0.027945 -0.006864 0.203056 -0.014032 0.064641 0.109336 0.085226 -0.060861 -0.002474 0.007981 -0.020378 0.107355 -0.163015 0.082466 -0.128308 0.111157 -0.072677 -0.166955 0.112389 0.063420 0.024925 -0.104937 -0.161990 -0.011186 0.168100 0.212610 -0.110640 0.111526 0.006197 -0.143038 -0.017836 0.109011 -0.197607 0.221032 0.107322 -0.002120 -0.133818 -0.219747 -0.163207 -0.017952 -0.008998 -0.078982 0.172324 -0.170376 0.005898 0.080630 -0.036097 -0.062410 0.032131 0.016274 -0.004614 -0.156331 -0.005137 -0.063549 0.020084 -0.065053 0.076366 -0.072486 0.170834 -0.023164 -0.018513 -0.117101 -0.090191 -0.153663 -0.078533 -0.164346 -0.205220 0.040359 0.015201 -0.032460 -0.013433 -0.004456 0.166235 0.053797 0.134997 -0.019110 -0.267298 0.148146 -0.117207 -0.174961 0.197326 0.186779 -0.209640 0.020069 -0.193278 -0.188131 -0.083500 -0.061310 0.235887 0.135890 -0.072520 -0.154594 -0.112130 -0.067459 -0.020853 -0.121447 -0.123205 0.107307 -0.024324 0.273843 -0.238886 0.035654 -0.057067 -0.043775 0.114869 -0.219882 -0.229363 0.037706 0.029754 0.178940
31 -0.125388 -0.196280 0.114644 0.032141 0.087471 -0.034603 0.130279 -0.032870 -0.022852 -0.021675 -0.042888 0.102851 -0.011019 -0.192456 -0.085528 -0.187698 -0.028909 -0.030376 0.021452 0.008952 0.156775 0.015196 0.069359 0.117561 -0.024787 -0.060328 -0.004307 0.050800 -0.035617 0.105610 -0.122382 0.113239 -0.097194 0.128730 -0.113003 -0.107065 0.120796 0.016969 0.053783 -0.071357 -0.184671 0.040583 0.143965 0.147009 -0.016983 0.101938 -0.031967 -0.145880 -0.119257 0.086764 -0.055527 0.193779 0.086838 -0.018671 -0.183490 -0.149577 -0.164932 -0.030489 -0.120051 0.039978 0.116482 -0.163386 -0.101170 0.078179 0.054659 -0.142505 0.044413 -0.041791 0.005373 -0.049835 0.084224 -0.065352 0.060413 0.010413 -0.010203 -0.073070 0.191961 0.005006 0.031268 0.032781 -0.040303 -0.166473 -0.061885 -0.228169 -0.120061 0.199611 -0.140364 -0.030438 -0.101192 -0.036645 0.083278 0.096971 0.073588 -0.001729 -0.149134 0.151127 -0.163530 0.008898 0.126702 0.069646 -0.229208 0.036957 -0.118481 -0.133948 0.005860 -0.012416 0.197734 0.087622 -0.018088 -0.089878 -0.068739 -0.149165 -0.082560 -0.124397 -0.014415 0.023743 -0.089157 0.209691 -0.157928 0.068936 -0.082200 -0.111902 -0.024834 -0.142897 -0.027395 0.070775 -0.048078 0.050255
11 -0.066865 -0.259574 0.054590 0.048708 0.031948 -0.068811 0.155272 0.022073 0.098625 -0.029858 -0.008983 0.157925 -0.011386 -0.138037 0.023358 -0.225800 -0.073173 -0.136392 0.024292 -0.004974 0.196229 -0.009140 0.066653 0.110867 0.067791 -0.059951 -0.006792 0.014190 -0.023310 0.097792 -0.152326 0.085696 -0.119626 0.107376 -0.074230 -0.153246 0.113904 0.056719 0.030996 -0.088739 -0.154667 -0.006635 0.162491 0.202938 -0.096133 0.107686 0.000673 -0.133191 -0.034463 0.102772 -0.173451 0.209942 0.105333 -0.006461 -0.138083 -0.208451 -0.157837 -0.013660 -0.027271 -0.060222 0.159720 -0.170633 0.000117 0.082068 -0.028626 -0.062229 0.032823 0.008021 0.005683 -0.140046 0.004844 -0.062005 0.022276 -0.060301 0.068067 -0.068541 0.169364 -0.024540 -0.014116 -0.102009 -0.078887 -0.148185 -0.075238 -0.170398 -0.196785 0.058853 -0.001428 -0.029565 -0.018410 -0.005551 0.148879 0.053505 0.123579 -0.015731 -0.246094 0.142084 -0.118919 -0.144614 0.183666 0.176461 -0.206084 0.028581 -0.181978 -0.175447 -0.072304 -0.057283 0.228295 0.121699 -0.063001 -0.145935 -0.108676 -0.074486 -0.031575 -0.122310 -0.108937 0.091342 -0.034066 0.264095 -0.223220 0.035865 -0.055373 -0.052242 0.097602 -0.205566 -0.201671 0.033699 0.014236 0.165021
26 -0.155050 -0.184812 0.132974 0.026298 0.107959 -0.018252 0.120459 -0.050210 -0.056969 -0.025533 -0.058577 0.068251 -0.014355 -0.202606 -0.124034 -0.162021 0.000557 -0.003702 0.011094 0.017285 0.144947 0.025298 0.081131 0.118099 -0.057071 -0.074710 -0.018854 0.047564 -0.049886 0.111383 -0.095430 0.117478 -0.072197 0.113257 -0.137307 -0.094160 0.128426 0.009344 0.048328 -0.065831 -0.206174 0.054719 0.137332 0.126361 0.005877 0.110546 -0.039471 -0.142496 -0.149230 0.086117 -0.004969 0.200059 0.075719 -0.025808 -0.203162 -0.131427 -0.167263 -0.034117 -0.151520 0.087470 0.101761 -0.165738 -0.124241 0.092155 0.080384 -0.170980 0.055949 -0.055660 0.008247 -0.020792 0.115067 -0.060116 0.062948 0.038983 -0.037420 -0.082064 0.184960 0.020407 0.037780 0.071914 -0.033800 -0.160728 -0.048121 -0.241602 -0.094258 0.250300 -0.193954 -0.025752 -0.134090 -0.045246 0.065784 0.108133 0.064479 0.014685 -0.101169 0.160444 -0.173255 0.068950 0.117332 0.026086 -0.233396 0.048474 -0.103626 -0.108565 0.037173 0.007382 0.190805 0.075988 0.006965 -0.064301 -0.054324 -0.170718 -0.099535 -0.121686 0.018658 -0.005999 -0.099106 0.176909 -0.119820 0.071499 -0.085674 -0.131129 -0.067085 -0.122893 0.030610 0.085410 -0.072592 0.008598
5 -0.049603 -0.271054 0.038800 0.050324 0.022860 -0.073256 0.166540 0.025803 0.117694 -0.028311 -0.001887 0.167923 -0.012223 -0.132720 0.037686 -0.231771 -0.079595 -0.153644 0.023990 -0.002436 0.200384 -0.008465 0.057831 0.112428 0.084154 -0.059296 -0.005214 0.007291 -0.021584 0.099226 -0.162672 0.079410 -0.129131 0.108389 -0.068091 -0.166452 0.108321 0.059533 0.025293 -0.099154 -0.148399 -0.015744 0.158169 0.209626 -0.108059 0.105009 0.004272 -0.135013 -0.018772 0.101489 -0.193218 0.215139 0.109894 -0.005734 -0.126973 -0.213359 -0.154657 -0.013258 -0.004149 -0.081892 0.163165 -0.171974 0.011543 0.080562 -0.041424 -0.053144 0.036544 0.016997 -0.000846 -0.155329 -0.011328 -0.059804 0.017901 -0.072498 0.074065 -0.073043 0.160748 -0.031577 -0.022116 -0.122606 -0.087063 -0.150958 -0.079592 -0.155033 -0.204937 0.031838 0.019759 -0.024507 -0.004564 -0.002723 0.162531 0.046766 0.130307 -0.019122 -0.262326 0.141935 -0.115632 -0.174922 0.193223 0.188730 -0.206522 0.020551 -0.186992 -0.187409 -0.086391 -0.063915 0.229762 0.128743 -0.078218 -0.148371 -0.115424 -0.064989 -0.015795 -0.120983 -0.124008 0.105942 -0.018915 0.267003 -0.228514 0.034950 -0.054836 -0.034718 0.112081 -0.214876 -0.226221 0.035501 0.026012 0.184339
20 -0.102411 -0.230866 0.089057 0.034434 0.063253 -0.052701 0.150385 -0.007645 0.023779 -0.025251 -0.036714 0.128277 -0.006135 -0.177074 -0.043849 -0.209104 -0.051646 -0.070179 0.022787 0.001220 0.181061 0.006454 0.076268 0.116245 0.011481 -0.052501 0.001648 0.035438 -0.026552 0.104048 -0.141810 0.100905 -0.110556 0.126619 -0.098065 -0.131287 0.120011 0.026156 0.041461 -0.083393 -0.178944 0.014656 0.147047 0.175618 -0.043994 0.107982 -0.017975 -0.142371 -0.080174 0.086093 -0.112891 0.196091 0.098367 -0.012581 -0.169595 -0.169189 -0.162975 -0.027806 -0.085087 0.003425 0.138391 -0.163022 -0.060545 0.079743 0.023791 -0.108468 0.043037 -0.019309 0.001496 -0.081118 0.047497 -0.061707 0.049495 -0.020042 0.021899 -0.067513 0.186875 -0.005660 0.015200 -0.020910 -0.059664 -0.168774 -0.070591 -0.212952 -0.152141 0.148772 -0.085970 -0.032747 -0.071489 -0.021649 0.120954 0.077595 0.094675 -0.014009 -0.192465 0.148127 -0.146628 -0.057027 0.149113 0.116815 -0.228152 0.025366 -0.150788 -0.147399 -0.023780 -0.030078 0.212838 0.107275 -0.040123 -0.115172 -0.088062 -0.119375 -0.057898 -0.122768 -0.060048 0.047706 -0.064524 0.237738 -0.191232 0.057321 -0.074908 -0.085934 0.025550 -0.173434 -0.094849 0.059563 -0.021460 0.098700
25 -0.153900 -0.196813 0.120886 0.025033 0.093458 -0.020440 0.119178 -0.048334 -0.034703 -0.025734 -0.052181 0.078531 -0.017661 -0.189555 -0.107267 -0.175466 -0.007581 -0.020040 0.016897 0.017777 0.156655 0.021400 0.080426 0.123034 -0.043881 -0.076912 -0.012714 0.045660 -0.048330 0.112678 -0.105095 0.116603 -0.079907 0.118839 -0.136033 -0.100535 0.124956 0.020625 0.047862 -0.070229 -0.206590 0.052111 0.141068 0.135785 -0.000951 0.115556 -0.032183 -0.139978 -0.132914 0.083744 -0.033827 0.202922 0.084937 -0.018373 -0.205762 -0.144277 -0.166166 -0.041466 -0.141073 0.076678 0.106712 -0.161884 -0.111057 0.087819 0.064170 -0.161602 0.049951 -0.045451 0.004375 -0.036459 0.102148 -0.065070 0.063952 0.030874 -0.026100 -0.081902 0.185441 0.019702 0.034977 0.051192 -0.040136 -0.166434 -0.053260 -0.244860 -0.113089 0.231228 -0.172806 -0.035650 -0.127354 -0.047057 0.076906 0.102937 0.075936 0.002489 -0.127410 0.165026 -0.172352 0.045219 0.125893 0.049981 -0.243362 0.048187 -0.124776 -0.120262 0.027400 -0.003446 0.202038 0.086855 -0.002777 -0.085066 -0.060005 -0.163318 -0.093126 -0.130523 -0.004942 0.005660 -0.094065 0.197082 -0.140681 0.071572 -0.083686 -0.123892 -0.047467 -0.136467 -0.000127 0.083182 -0.065249 0.031729
29 -0.141126 -0.193086 0.116392 0.024837 0.095201 -0.027765 0.121198 -0.041194 -0.032007 -0.021806 -0.047185 0.091395 -0.016554 -0.191098 -0.097226 -0.174876 -0.019118 -0.023201 0.019949 0.012316 0.153714 0.019360 0.070622 0.114640 -0.041428 -0.065956 -0.009224 0.046357 -0.036017 0.108972 -0.108162 0.110478 -0.083568 0.123202 -0.126506 -0.102356 0.125870 0.016839 0.052101 -0.070061 -0.188498 0.045958 0.136934 0.136857 -0.004075 0.109221 -0.035083 -0.141793 -0.129484 0.081685 -0.038489 0.189775 0.079928 -0.017028 -0.196619 -0.135358 -0.159965 -0.029380 -0.129226 0.061907 0.109914 -0.165143 -0.110097 0.083950 0.060612 -0.151944 0.045466 -0.046077 0.009047 -0.036049 0.092162 -0.062474 0.060507 0.024102 -0.018351 -0.070931 0.190800 0.013540 0.033731 0.045289 -0.042808 -0.161720 -0.053613 -0.236603 -0.111140 0.217630 -0.154154 -0.034481 -0.111611 -0.043707 0.081046 0.095644 0.067963 0.002929 -0.127079 0.157885 -0.169607 0.034336 0.122253 0.049600 -0.233068 0.043008 -0.115647 -0.119393 0.020452 -0.004757 0.190483 0.081481 -0.010906 -0.082742 -0.057704 -0.154838 -0.089522 -0.123698 -0.008348 0.008378 -0.094156 0.193969 -0.140294 0.068608 -0.083413 -0.121025 -0.042903 -0.136551 -0.001964 0.076373 -0.056472 0.032911
15 -0.149980 -0.219256 0.126590 0.033857 0.098486 -0.023793 0.144810 -0.041971 -0.023359 -0.025641 -0.050585 0.099264 -0.019387 -0.198913 -0.096989 -0.190411 -0.022484 -0.033468 0.009755 0.007117 0.166555 0.019278 0.081006 0.123652 -0.033319 -0.076998 -0.014302 0.044723 -0.048126 0.110561 -0.119679 0.121929 -0.087133 0.123673 -0.126583 -0.109686 0.129359 0.020614 0.051911 -0.072391 -0.210858 0.053154 0.152963 0.149279 -0.012140 0.115614 -0.030605 -0.151946 -0.133008 0.093254 -0.043398 0.215666 0.090832 -0.023145 -0.201557 -0.161394 -0.185615 -0.038071 -0.126181 0.060764 0.122336 -0.172589 -0.107163 0.087619 0.066699 -0.158738 0.055866 -0.046436 0.012141 -0.045481 0.101887 -0.068844 0.060584 0.017874 -0.023120 -0.082566 0.198457 0.009815 0.025518 0.038996 -0.042116 -0.165869 -0.058582 -0.244493 -0.127442 0.219923 -0.164446 -0.028966 -0.118868 -0.035255 0.088687 0.106522 0.080419 0.007014 -0.144288 0.170622 -0.167930 0.029692 0.136826 0.064724 -0.238290 0.045092 -0.130605 -0.136146 0.014673 -0.015178 0.210669 0.087692 -0.012188 -0.091389 -0.067574 -0.158986 -0.096062 -0.137910 -0.008005 0.020159 -0.090755 0.212877 -0.157117 0.078334 -0.082821 -0.120365 -0.026153 -0.139894 -0.021456 0.077804 -0.053895 0.047266
22 -0.098923 -0.223899 0.087347 0.032091 0.064844 -0.048594 0.139299 -0.011304 0.021279 -0.026136 -0.034628 0.126463 -0.007110 -0.174241 -0.041077 -0.203837 -0.049409 -0.068077 0.028062 0.009319 0.175274 0.008698 0.073770 0.114408 0.004000 -0.048486 -0.003991 0.031654 -0.024579 0.106049 -0.136113 0.096537 -0.110703 0.124902 -0.100318 -0.131737 0.112963 0.024940 0.041167 -0.079228 -0.165801 0.011486 0.140909 0.173256 -0.038673 0.108320 -0.026276 -0.134884 -0.077234 0.080882 -0.106358 0.184429 0.089563 -0.008979 -0.161050 -0.162129 -0.153947 -0.022338 -0.080864 -0.000375 0.130865 -0.156785 -0.058934 0.079118 0.024311 -0.103382 0.036692 -0.018621 0.006963 -0.077137 0.047288 -0.059314 0.051428 -0.020824 0.024473 -0.065980 0.176473 -0.001781 0.016451 -0.020943 -0.060035 -0.163583 -0.065007 -0.208621 -0.148999 0.140747 -0.079697 -0.037550 -0.065726 -0.023637 0.116320 0.073639 0.091098 -0.017997 -0.188334 0.144434 -0.146856 -0.051405 0.147935 0.106779 -0.220983 0.028718 -0.140291 -0.141682 -0.019756 -0.027443 0.206021 0.106931 -0.041477 -0.114319 -0.078922 -0.119988 -0.054348 -0.118432 -0.057965 0.046462 -0.069861 0.230302 -0.188008 0.054624 -0.070645 -0.092010 0.022765 -0.168401 -0.088946 0.057083 -0.016929 0.094779
16 -0.133978 -0.198130 0.115608 0.031972 0.089377 -0.028850 0.133361 -0.034286 -0.021838 -0.022201 -0.049593 0.096445 -0.017308 -0.185222 -0.087254 -0.180641 -0.024851 -0.032563 0.011973 0.007234 0.151047 0.018382 0.075185 0.112483 -0.026450 -0.065119 -0.007325 0.042893 -0.041130 0.101452 -0.115128 0.111020 -0.088916 0.115652 -0.114500 -0.102537 0.124327 0.014820 0.044175 -0.070243 -0.188960 0.047149 0.142783 0.140282 -0.011138 0.099938 -0.025212 -0.136656 -0.122899 0.087480 -0.039455 0.192037 0.084458 -0.018041 -0.180153 -0.142145 -0.163355 -0.030018 -0.116917 0.046089 0.110977 -0.163350 -0.099587 0.077954 0.061402 -0.145909 0.049308 -0.037954 0.005581 -0.047776 0.091759 -0.065088 0.058594 0.014283 -0.012932 -0.075299 0.185692 0.006100 0.026147 0.038634 -0.035500 -0.159961 -0.055333 -0.224799 -0.112413 0.205087 -0.143611 -0.021759 -0.103787 -0.033782 0.077772 0.095638 0.064699 0.005326 -0.133097 0.152999 -0.154025 0.018073 0.120764 0.054755 -0.218165 0.040798 -0.111190 -0.127160 0.007965 -0.013327 0.187604 0.080692 -0.011197 -0.082159 -0.063631 -0.141329 -0.086734 -0.118976 -0.007443 0.018972 -0.086524 0.198661 -0.142772 0.065722 -0.079629 -0.107680 -0.030395 -0.136909 -0.014523 0.073379 -0.048372 0.046761
23 -0.124243 -0.210531 0.103400 0.035744 0.079581 -0.030463 0.134254 -0.021835 -0.003789 -0.025073 -0.043472 0.102198 -0.014079 -0.184773 -0.077821 -0.184497 -0.027133 -0.042902 0.018939 0.011158 0.158772 0.011581 0.069672 0.117592 -0.012307 -0.067753 -0.011659 0.037567 -0.041101 0.107886 -0.121130 0.107394 -0.094966 0.119020 -0.115745 -0.115761 0.122017 0.020997 0.042928 -0.073998 -0.188540 0.035963 0.148916 0.156112 -0.023723 0.103115 -0.024976 -0.140151 -0.110099 0.088788 -0.063733 0.199181 0.091131 -0.019929 -0.181630 -0.160509 -0.169429 -0.029538 -0.105675 0.032207 0.120326 -0.165054 -0.084599 0.084411 0.049923 -0.136146 0.049371 -0.030053 0.007206 -0.057901 0.077581 -0.061943 0.057522 0.005630 -0.008681 -0.075576 0.187464 0.005144 0.026369 0.018068 -0.044660 -0.164098 -0.057817 -0.219893 -0.131204 0.187952 -0.129716 -0.026423 -0.099226 -0.032450 0.095786 0.092178 0.077115 0.000036 -0.159782 0.152834 -0.155033 -0.007991 0.135594 0.082070 -0.227263 0.037033 -0.125382 -0.140810 -0.002048 -0.020524 0.198970 0.089099 -0.020625 -0.092670 -0.073641 -0.141120 -0.077708 -0.126720 -0.026126 0.027379 -0.080767 0.212700 -0.160564 0.065503 -0.076670 -0.098601 -0.011590 -0.149186 -0.046050 0.065008 -0.038610 0.063639
19 -0.138601 -0.207397 0.123500 0.030611 0.093943 -0.025529 0.131930 -0.039939 -0.025342 -0.022826 -0.053531 0.095224 -0.018418 -0.193779 -0.098549 -0.181148 -0.020739 -0.030224 0.018208 0.014186 0.159093 0.015245 0.076972 0.120760 -0.033604 -0.069067 -0.011749 0.046615 -0.045708 0.108749 -0.113871 0.116698 -0.086658 0.119050 -0.125635 -0.106115 0.123476 0.021155 0.051290 -0.070104 -0.199254 0.049393 0.146783 0.142334 -0.008314 0.110663 -0.026669 -0.148245 -0.129619 0.090397 -0.042010 0.203851 0.084107 -0.022480 -0.192630 -0.147525 -0.175791 -0.031821 -0.123973 0.057360 0.113513 -0.170901 -0.104424 0.090066 0.063107 -0.160391 0.053722 -0.045384 0.005846 -0.046939 0.096798 -0.064270 0.059828 0.022032 -0.023070 -0.081954 0.194501 0.012854 0.027286 0.040861 -0.041930 -0.165663 -0.056744 -0.239506 -0.120986 0.219070 -0.156129 -0.025580 -0.118905 -0.039787 0.083196 0.103451 0.076808 0.007334 -0.137284 0.164569 -0.167665 0.027188 0.129297 0.054156 -0.233551 0.045856 -0.124376 -0.132676 0.014215 -0.008557 0.201271 0.084304 -0.012206 -0.086598 -0.065913 -0.155911 -0.090472 -0.130767 -0.003559 0.016420 -0.088296 0.205473 -0.151354 0.074930 -0.085022 -0.118348 -0.034592 -0.141260 -0.015733 0.076569 -0.058336 0.038552
17 -0.061058 -0.271906 0.049264 0.052933 0.019752 -0.072670 0.168359 0.025183 0.111716 -0.022515 -0.005776 0.169161 -0.007670 -0.136092 0.024955 -0.226796 -0.075234 -0.152967 0.020669 -0.000185 0.202366 -0.015090 0.069587 0.110140 0.082379 -0.059648 -0.007923 0.011452 -0.019910 0.106340 -0.158195 0.087307 -0.122744 0.109617 -0.079586 -0.167664 0.115325 0.061807 0.027853 -0.097818 -0.165674 -0.013600 0.162478 0.214285 -0.106698 0.108037 0.003989 -0.137178 -0.027664 0.107827 -0.191362 0.218634 0.111336 -0.009673 -0.137717 -0.217329 -0.168248 -0.013968 -0.013811 -0.071673 0.169507 -0.175913 0.005213 0.081277 -0.031480 -0.059597 0.035892 0.013581 0.000592 -0.147195 -0.005137 -0.062579 0.022303 -0.067362 0.072664 -0.067821 0.167763 -0.025927 -0.014934 -0.115299 -0.085313 -0.154501 -0.073055 -0.163967 -0.207754 0.052463 0.006665 -0.031477 -0.012826 -0.006006 0.156598 0.055205 0.130161 -0.015916 -0.261224 0.149476 -0.116344 -0.157939 0.196195 0.184951 -0.211261 0.024781 -0.193594 -0.183167 -0.077164 -0.061814 0.235401 0.127052 -0.071460 -0.145563 -0.113624 -0.072029 -0.021476 -0.121816 -0.116524 0.099876 -0.028083 0.274083 -0.232705 0.033215 -0.054189 -0.040900 0.107708 -0.209397 -0.222228 0.034495 0.021330 0.180055
18 -0.094608 -0.215979 0.078761 0.030225 0.060436 -0.046758 0.135068 -0.006829 0.029754 -0.020085 -0.032081 0.124967 -0.006261 -0.166212 -0.037459 -0.202505 -0.047961 -0.070235 0.019670 0.008628 0.174852 0.007013 0.073467 0.112375 0.015938 -0.050544 -0.002822 0.032703 -0.024415 0.102998 -0.132821 0.098291 -0.105010 0.122376 -0.094946 -0.129871 0.110997 0.029114 0.042615 -0.072746 -0.168536 0.017993 0.138940 0.167619 -0.045804 0.105644 -0.022775 -0.133745 -0.074144 0.081683 -0.105767 0.182193 0.095610 -0.004648 -0.161104 -0.160360 -0.153362 -0.028836 -0.078987 -0.001052 0.129747 -0.158249 -0.053858 0.074828 0.024539 -0.098934 0.041257 -0.019403 0.006834 -0.080094 0.042882 -0.060311 0.050089 -0.024517 0.026228 -0.064978 0.178001 -0.001988 0.013472 -0.025886 -0.061913 -0.154733 -0.064457 -0.201272 -0.150852 0.136881 -0.073400 -0.032533 -0.067117 -0.019284 0.114640 0.070165 0.093454 -0.016986 -0.191798 0.142564 -0.142474 -0.053107 0.146211 0.109306 -0.214969 0.030023 -0.143446 -0.143135 -0.023086 -0.031357 0.200506 0.099353 -0.041063 -0.117398 -0.084920 -0.115528 -0.057294 -0.120341 -0.058867 0.047515 -0.062780 0.224722 -0.179798 0.052658 -0.070610 -0.088051 0.025810 -0.167365 -0.094926 0.051426 -0.018340 0.095247
10 -0.115581 -0.220816 0.096419 0.034701 0.073174 -0.034589 0.139161 -0.019227 0.012147 -0.025619 -0.034935 0.114026 -0.016203 -0.173472 -0.061567 -0.190379 -0.032335 -0.057088 0.018900 0.008151 0.169098 0.010045 0.071923 0.118722 -0.003765 -0.064626 -0.006156 0.035850 -0.034660 0.104572 -0.129668 0.100092 -0.097843 0.123736 -0.112492 -0.123048 0.121939 0.025287 0.042098 -0.080966 -0.185428 0.025983 0.150818 0.166483 -0.032566 0.110759 -0.018356 -0.142673 -0.092155 0.086678 -0.083593 0.200313 0.093776 -0.014152 -0.178306 -0.160943 -0.163757 -0.031443 -0.099046 0.022892 0.127638 -0.164782 -0.078913 0.084323 0.035958 -0.123197 0.041914 -0.028642 0.001061 -0.076617 0.066972 -0.065189 0.054856 -0.005376 0.011127 -0.073014 0.184965 0.000009 0.015402 -0.001449 -0.058917 -0.166195 -0.063523 -0.212655 -0.145683 0.169761 -0.111274 -0.034329 -0.085262 -0.031639 0.109229 0.086144 0.091466 -0.002125 -0.173130 0.156896 -0.155362 -0.031635 0.146361 0.095206 -0.229254 0.034170 -0.139395 -0.142563 -0.011598 -0.022925 0.212039 0.101806 -0.033739 -0.103159 -0.072305 -0.135302 -0.067041 -0.125159 -0.038633 0.038973 -0.073745 0.225622 -0.175194 0.058315 -0.077311 -0.099310 0.005461 -0.159172 -0.067203 0.062630 -0.031490 0.080895
27 -0.134244 -0.198721 0.114932 0.026417 0.092034 -0.024350 0.125790 -0.032733 -0.034974 -0.019955 -0.051195 0.085591 -0.015648 -0.185135 -0.097251 -0.174214 -0.012284 -0.022765 0.016527 0.006713 0.151833 0.020357 0.074755 0.116326 -0.036224 -0.068784 -0.013064 0.050956 -0.042278 0.106609 -0.108021 0.107221 -0.086280 0.116917 -0.117942 -0.102232 0.118655 0.014168 0.047453 -0.071432 -0.192837 0.046715 0.138060 0.137502 -0.006780 0.105696 -0.027054 -0.140487 -0.125035 0.085422 -0.033677 0.194748 0.078258 -0.015653 -0.188824 -0.141506 -0.164409 -0.028522 -0.122202 0.060695 0.104721 -0.156381 -0.109319 0.082529 0.063284 -0.150606 0.044800 -0.040941 0.005559 -0.039290 0.089259 -0.057444 0.060374 0.017859 -0.024858 -0.076829 0.187098 0.008043 0.030362 0.047798 -0.040944 -0.161619 -0.055275 -0.223815 -0.113596 0.214015 -0.151683 -0.028563 -0.115141 -0.037624 0.074466 0.093525 0.068381 0.004809 -0.128448 0.152794 -0.160463 0.026715 0.122824 0.047166 -0.228727 0.040643 -0.108052 -0.125352 0.020474 -0.003240 0.193809 0.076613 -0.014363 -0.075499 -0.057251 -0.151656 -0.087264 -0.121983 -0.000933 0.008135 -0.090966 0.192999 -0.144198 0.068571 -0.084482 -0.111281 -0.035056 -0.133098 -0.007203 0.075525 -0.052915 0.035405
21 -0.135277 -0.202027 0.110649 0.027177 0.080715 -0.031425 0.127812 -0.032785 -0.012408 -0.019238 -0.043100 0.098170 -0.014323 -0.185459 -0.082101 -0.178871 -0.023092 -0.038425 0.019621 0.010522 0.159913 0.014945 0.070981 0.116860 -0.021585 -0.067746 -0.008648 0.043294 -0.037570 0.105513 -0.112767 0.108276 -0.088624 0.122064 -0.120437 -0.113145 0.120109 0.026869 0.049747 -0.068932 -0.192871 0.042699 0.141293 0.145377 -0.023987 0.106406 -0.025814 -0.139369 -0.111702 0.085232 -0.053290 0.199324 0.088620 -0.020590 -0.185889 -0.149174 -0.165310 -0.033623 -0.117320 0.047346 0.113631 -0.162943 -0.090941 0.087670 0.054293 -0.140511 0.047634 -0.039918 0.004752 -0.057185 0.085257 -0.065342 0.056139 0.012891 -0.007844 -0.073357 0.182021 0.004786 0.027240 0.027442 -0.046702 -0.159164 -0.057947 -0.227204 -0.127550 0.192827 -0.138367 -0.030850 -0.096848 -0.037538 0.092870 0.095298 0.074397 0.004250 -0.146067 0.153035 -0.160770 0.009398 0.132976 0.069336 -0.228250 0.037854 -0.126842 -0.126259 0.010307 -0.010042 0.197630 0.084094 -0.019179 -0.093257 -0.063040 -0.139465 -0.080795 -0.120989 -0.020572 0.026621 -0.086384 0.205669 -0.153141 0.069245 -0.078497 -0.109617 -0.018743 -0.146834 -0.032319 0.068708 -0.043061 0.051402
13 -0.082811 -0.239360 0.075944 0.034736 0.050387 -0.057562 0.155187 0.000835 0.055094 -0.024522 -0.026173 0.142208 -0.007643 -0.170915 -0.016624 -0.223431 -0.063864 -0.098866 0.026358 -0.000751 0.191492 0.003258 0.066862 0.117928 0.029553 -0.054006 0.002195 0.031991 -0.021359 0.107071 -0.154655 0.098461 -0.124255 0.125715 -0.092415 -0.149119 0.121347 0.041391 0.042110 -0.085329 -0.165010 0.002468 0.156916 0.196226 -0.064781 0.110249 -0.014544 -0.141835 -0.063934 0.094283 -0.142401 0.200561 0.105060 -0.001104 -0.163013 -0.190340 -0.165415 -0.024788 -0.059644 -0.028593 0.147748 -0.164885 -0.041854 0.074717 0.008231 -0.091408 0.037202 -0.011018 0.005233 -0.111647 0.028085 -0.066008 0.045306 -0.040824 0.043005 -0.073693 0.179610 -0.013459 0.000933 -0.057785 -0.067911 -0.168986 -0.077154 -0.198831 -0.175439 0.111653 -0.047224 -0.035299 -0.051480 -0.013145 0.138048 0.067289 0.101540 -0.023356 -0.222691 0.143082 -0.140775 -0.099790 0.161029 0.142855 -0.218923 0.024983 -0.162686 -0.164212 -0.044692 -0.048422 0.224683 0.116012 -0.055561 -0.137611 -0.091353 -0.105767 -0.044758 -0.120462 -0.087208 0.065647 -0.058038 0.257720 -0.207902 0.047316 -0.067807 -0.073628 0.057156 -0.185205 -0.141649 0.053392 0.002001 0.131817
12 -0.095250 -0.236154 0.078658 0.033972 0.052389 -0.053574 0.143038 -0.006262 0.041751 -0.022418 -0.022471 0.138489 -0.010172 -0.161527 -0.025425 -0.206219 -0.057311 -0.087064 0.025789 0.000413 0.182998 0.006793 0.071815 0.112356 0.021764 -0.057763 -0.002273 0.030698 -0.024774 0.103714 -0.139600 0.098178 -0.116780 0.122511 -0.093685 -0.135284 0.113563 0.038596 0.040933 -0.079717 -0.168432 0.009286 0.152301 0.180672 -0.058648 0.109911 -0.015086 -0.139461 -0.071442 0.088457 -0.125945 0.197800 0.097246 -0.011700 -0.163005 -0.181014 -0.159084 -0.022373 -0.066791 -0.012767 0.142326 -0.162130 -0.047077 0.080678 0.008054 -0.093623 0.041835 -0.012973 0.007715 -0.094348 0.041128 -0.059996 0.045190 -0.029672 0.034796 -0.069789 0.182296 -0.005104 0.007390 -0.039657 -0.066322 -0.159460 -0.073432 -0.199782 -0.166232 0.125033 -0.062776 -0.034077 -0.057998 -0.022022 0.125201 0.073896 0.099183 -0.016576 -0.205251 0.144542 -0.138308 -0.080984 0.160144 0.128465 -0.224408 0.025660 -0.155529 -0.155519 -0.035310 -0.042260 0.215949 0.110622 -0.044304 -0.128111 -0.093757 -0.109795 -0.050808 -0.120798 -0.070864 0.063832 -0.059832 0.245823 -0.201803 0.048523 -0.070563 -0.081486 0.044413 -0.176570 -0.125153 0.052783 -0.012303 0.116100
