34 128
34 -0.076598 -0.193383 0.114682 0.057484 0.060866 -0.164202 0.092007 0.097070 -0.005868 0.051886 -0.052578 0.069652 0.056241 -0.186757 -0.013060 -0.189890 0.032178 -0.135638 0.157547 0.086568 0.171903 -0.035687 0.081672 -0.119395 -0.019811 0.012790 -0.002586 0.074606 0.096287 0.177460 -0.054322 0.005276 -0.054646 0.093744 -0.177058 -0.147963 0.247658 0.129321 0.070629 0.003784 -0.095894 -0.037650 0.104974 0.201142 -0.056137 0.091280 -0.052788 -0.146822 -0.065573 0.092130 -0.082968 0.046799 0.091228 0.131015 -0.271771 -0.089847 -0.094524 0.053421 -0.023303 -0.056190 0.147675 -0.163104 -0.082700 0.112931 0.066421 -0.104129 -0.070519 -0.054735 0.043592 -0.099879 -0.065430 -0.045320 0.015929 -0.029270 0.069272 -0.022267 0.070538 0.078454 0.001521 0.004993 -0.084141 -0.252829 -0.040169 -0.147958 -0.073588 0.164058 0.143264 -0.092200 0.021661 -0.024486 0.098766 -0.022182 -0.041710 -0.080592 -0.085694 0.069922 -0.172187 -0.154476 0.073491 -0.079922 -0.106832 0.009019 -0.088878 0.005117 0.004526 0.004477 0.188779 0.022408 -0.079283 -0.117000 0.026741 -0.026025 0.070973 0.109942 -0.161991 0.042609 -0.056629 0.151371 -0.133788 -0.088018 -0.022781 -0.111710 0.052380 -0.163194 -0.106859 0.050712 0.130026 0.028356
1 -0.063315 -0.194757 0.109515 0.016232 0.014823 -0.168138 0.059628 0.147975 0.050848 0.056076 -0.030836 0.088933 0.068592 -0.175611 0.030351 -0.182605 0.006474 -0.144210 0.165745 0.048072 0.158277 -0.052523 0.050570 -0.118794 0.018490 0.041242 0.000710 0.087619 0.131621 0.153721 -0.055095 -0.002903 -0.066986 0.092578 -0.173206 -0.184030 0.223999 0.107536 0.089199 0.023614 -0.064646 -0.098385 0.110580 0.231395 -0.083145 0.088531 -0.070394 -0.138802 -0.038831 0.117055 -0.141518 0.005193 0.117353 0.161774 -0.301237 -0.097857 -0.089438 0.073649 -0.020291 -0.087370 0.164792 -0.171569 -0.056125 0.077692 0.059941 -0.021191 -0.062966 -0.040592 0.024948 -0.128817 -0.097361 -0.073655 0.047729 -0.068725 0.118028 0.001319 0.086560 0.035695 0.001153 -0.072285 -0.078173 -0.236865 -0.060259 -0.098671 -0.109788 0.088150 0.207734 -0.121754 0.083970 -0.018662 0.125781 -0.052411 -0.063194 -0.073461 -0.133829 -0.004114 -0.127811 -0.242445 0.073509 -0.003335 -0.060660 -0.026322 -0.063091 0.015507 -0.003138 -0.046183 0.146991 0.015703 -0.082889 -0.142682 0.004568 0.031764 0.093427 0.129192 -0.215498 0.058033 -0.050317 0.155125 -0.163031 -0.149270 -0.005391 -0.058471 0.082664 -0.168325 -0.170128 0.001652 0.185443 0.048152
33 -0.081168 -0.194402 0.116608 0.077958 0.080809 -0.162823 0.102848 0.078078 -0.032780 0.050671 -0.058620 0.059859 0.050700 -0.197492 -0.031805 -0.193441 0.038805 -0.126835 0.144537 0.101996 0.178441 -0.024214 0.094731 -0.119584 -0.041556 0.008811 -0.007687 0.076077 0.085074 0.189143 -0.066513 0.011561 -0.048580 0.101101 -0.186546 -0.138924 0.257423 0.135366 0.061663 -0.006895 -0.112868 -0.012921 0.101203 0.188297 -0.039623 0.094348 -0.051260 -0.152031 -0.088856 0.074258 -0.056577 0.066126 0.078731 0.113637 -0.261171 -0.079887 -0.103971 0.046122 -0.025283 -0.038449 0.144549 -0.167193 -0.096484 0.127215 0.076017 -0.145988 -0.067204 -0.057226 0.047740 -0.083435 -0.044433 -0.032930 0.013795 -0.015143 0.041078 -0.032094 0.076164 0.093995 0.004767 0.044348 -0.077250 -0.271475 -0.037631 -0.178807 -0.057656 0.207999 0.108627 -0.079728 -0.006105 -0.029861 0.091204 -0.004220 -0.031581 -0.086740 -0.060915 0.106486 -0.197506 -0.114830 0.076812 -0.117798 -0.131075 0.016413 -0.099929 0.003551 0.017086 0.028098 0.207278 0.028279 -0.077174 -0.104212 0.030675 -0.060182 0.059018 0.089096 -0.126469 0.035993 -0.062615 0.141910 -0.118292 -0.059023 -0.032056 -0.135365 0.029498 -0.154928 -0.060829 0.070592 0.092932 0.015189
3 -0.070538 -0.178281 0.108842 0.045672 0.049840 -0.158505 0.083506 0.106880 -0.001288 0.050189 -0.042444 0.068766 0.053512 -0.182106 -0.005269 -0.184098 0.025693 -0.131868 0.147283 0.071934 0.155407 -0.032180 0.067524 -0.110522 -0.009465 0.023421 -0.002950 0.080014 0.106473 0.166460 -0.059952 0.000146 -0.057024 0.096027 -0.167301 -0.152627 0.233557 0.117316 0.071814 0.010245 -0.083229 -0.054622 0.099360 0.201360 -0.057223 0.083435 -0.054058 -0.139022 -0.066077 0.087961 -0.085163 0.028673 0.088540 0.130809 -0.263757 -0.086070 -0.092101 0.053328 -0.025456 -0.056683 0.139267 -0.153533 -0.073116 0.098610 0.065580 -0.082560 -0.059304 -0.043809 0.035330 -0.101071 -0.064655 -0.045380 0.024450 -0.037552 0.075138 -0.016051 0.078799 0.063003 0.003738 -0.008163 -0.074023 -0.237691 -0.045626 -0.132306 -0.073374 0.145656 0.146395 -0.090803 0.030832 -0.022929 0.097609 -0.024300 -0.046284 -0.076898 -0.094065 0.052401 -0.157715 -0.158353 0.069898 -0.059982 -0.092443 -0.003360 -0.079096 0.007249 0.006685 -0.001573 0.164404 0.020340 -0.072596 -0.115175 0.021003 -0.015676 0.070060 0.102167 -0.155169 0.044409 -0.053310 0.139135 -0.120940 -0.091875 -0.019804 -0.096267 0.047871 -0.149180 -0.106358 0.037081 0.130270 0.031770
2 -0.058955 -0.186376 0.111237 0.021349 0.031304 -0.174980 0.070743 0.150214 0.018117 0.057096 -0.036916 0.091372 0.073291 -0.183562 0.015979 -0.194097 0.007301 -0.127172 0.162420 0.058597 0.158761 -0.036180 0.059315 -0.124472 -0.001432 0.050978 0.000745 0.097955 0.137944 0.160907 -0.063475 -0.005836 -0.077275 0.112789 -0.170419 -0.173368 0.238448 0.099032 0.091952 0.028655 -0.064804 -0.089748 0.110474 0.233312 -0.069083 0.079277 -0.076580 -0.145425 -0.054977 0.093844 -0.120776 -0.010041 0.121888 0.165576 -0.302323 -0.094776 -0.088968 0.069886 -0.031881 -0.080076 0.153048 -0.161254 -0.069379 0.068886 0.071720 -0.028712 -0.061240 -0.047596 0.022655 -0.116621 -0.091714 -0.064748 0.059162 -0.072144 0.101837 0.001634 0.093839 0.041055 0.000998 -0.045264 -0.072431 -0.259712 -0.068927 -0.110132 -0.091800 0.122250 0.188953 -0.113289 0.072692 -0.021251 0.113581 -0.040170 -0.067930 -0.092305 -0.136606 0.008528 -0.145905 -0.221027 0.060958 -0.013960 -0.066219 -0.033711 -0.053083 0.008511 -0.002748 -0.042585 0.152979 0.023234 -0.092262 -0.134508 0.001363 0.013270 0.091594 0.116969 -0.196361 0.052838 -0.049871 0.153092 -0.150904 -0.130222 -0.011633 -0.072008 0.065272 -0.158311 -0.138668 0.015838 0.174001 0.045444
4 -0.061001 -0.172092 0.107575 0.024220 0.036901 -0.172057 0.064102 0.144135 0.020991 0.053027 -0.030957 0.086239 0.070339 -0.179985 0.013605 -0.188467 0.011257 -0.132286 0.163208 0.059719 0.156931 -0.038743 0.051733 -0.122095 0.003081 0.047205 0.001062 0.096202 0.136489 0.158229 -0.066608 -0.007248 -0.071957 0.107007 -0.168456 -0.174016 0.240527 0.108502 0.090995 0.029530 -0.066274 -0.091300 0.112901 0.233415 -0.064532 0.077997 -0.071091 -0.148902 -0.059351 0.096007 -0.115490 -0.005225 0.116399 0.160874 -0.299338 -0.093677 -0.089512 0.067381 -0.025882 -0.083589 0.158469 -0.164047 -0.069107 0.075019 0.073079 -0.033853 -0.065644 -0.045271 0.028176 -0.113784 -0.086561 -0.061784 0.053843 -0.069106 0.102462 -0.003431 0.095418 0.045688 -0.001033 -0.038694 -0.069972 -0.252269 -0.061718 -0.109975 -0.089215 0.116143 0.189200 -0.112964 0.067461 -0.017618 0.105067 -0.041583 -0.069259 -0.085557 -0.129257 0.013616 -0.147285 -0.214096 0.064905 -0.020369 -0.074081 -0.026033 -0.053057 0.015356 -0.006128 -0.032976 0.147674 0.019566 -0.089856 -0.136293 0.011434 0.008131 0.088483 0.121362 -0.192710 0.056617 -0.051262 0.155103 -0.147969 -0.127136 -0.009065 -0.072945 0.060041 -0.161571 -0.142634 0.016952 0.168457 0.044661
32 -0.089873 -0.211422 0.120978 0.072116 0.075772 -0.169873 0.107670 0.083647 -0.027480 0.056333 -0.062400 0.067420 0.052331 -0.203156 -0.027986 -0.203115 0.040220 -0.146274 0.155895 0.103786 0.185639 -0.026984 0.088775 -0.126617 -0.039652 0.010647 -0.009365 0.083908 0.098521 0.198383 -0.069547 0.009000 -0.044626 0.104678 -0.203948 -0.156788 0.280734 0.151471 0.071911 -0.010567 -0.119370 -0.024850 0.105857 0.208801 -0.051341 0.102963 -0.055190 -0.155763 -0.089267 0.083259 -0.072725 0.065230 0.085440 0.131683 -0.287941 -0.090113 -0.110256 0.048524 -0.030491 -0.048173 0.157810 -0.180562 -0.097152 0.137971 0.072805 -0.144566 -0.078395 -0.053168 0.048352 -0.104464 -0.062161 -0.035666 0.012779 -0.024829 0.054770 -0.030518 0.080890 0.099156 0.000427 0.032314 -0.090726 -0.288664 -0.035415 -0.182472 -0.070589 0.213105 0.135476 -0.090545 0.004834 -0.034771 0.105932 -0.013031 -0.034989 -0.092768 -0.068182 0.098629 -0.201209 -0.134995 0.076027 -0.122116 -0.127107 0.016403 -0.110233 0.003586 0.020951 0.031313 0.216906 0.024525 -0.084645 -0.116754 0.034173 -0.054065 0.066928 0.109022 -0.148900 0.041381 -0.067055 0.154190 -0.120988 -0.076520 -0.033416 -0.141291 0.035589 -0.166628 -0.076916 0.063812 0.108692 0.023537
14 -0.068774 -0.201377 0.116932 0.026340 0.032977 -0.171764 0.068648 0.139206 0.026044 0.058793 -0.039008 0.090039 0.063639 -0.181577 0.019585 -0.189861 0.011679 -0.138991 0.165623 0.058354 0.163641 -0.039103 0.058784 -0.121539 0.003241 0.043056 0.003689 0.091380 0.125311 0.166695 -0.057387 -0.004260 -0.068313 0.103275 -0.167691 -0.175371 0.237606 0.113209 0.083419 0.025081 -0.072867 -0.085286 0.109600 0.229453 -0.070997 0.089437 -0.064774 -0.140927 -0.052732 0.105078 -0.123486 0.004672 0.111405 0.154865 -0.291113 -0.096586 -0.093074 0.069241 -0.025490 -0.083761 0.156800 -0.167739 -0.062445 0.079360 0.064162 -0.039381 -0.060796 -0.048799 0.030012 -0.120652 -0.091698 -0.061161 0.042222 -0.059798 0.110124 -0.000967 0.090460 0.047930 -0.001042 -0.049130 -0.079856 -0.250334 -0.058545 -0.112784 -0.100703 0.120248 0.193857 -0.116310 0.067525 -0.022874 0.116109 -0.045785 -0.060661 -0.080909 -0.128253 0.017628 -0.147134 -0.216528 0.073824 -0.023171 -0.073524 -0.025461 -0.066248 0.015796 -0.004894 -0.032916 0.154788 0.020220 -0.088380 -0.138923 0.005166 0.012330 0.086777 0.121430 -0.193422 0.054887 -0.053969 0.149395 -0.148959 -0.128313 -0.010648 -0.075920 0.069753 -0.164848 -0.145848 0.015063 0.167258 0.041316
24 -0.078847 -0.188201 0.116271 0.074979 0.073399 -0.153181 0.099034 0.073030 -0.028784 0.051608 -0.054904 0.057348 0.051061 -0.191796 -0.032005 -0.190828 0.037858 -0.131154 0.143491 0.098126 0.170061 -0.023306 0.086406 -0.110025 -0.034709 0.011427 -0.008522 0.072038 0.082624 0.185575 -0.068241 0.010216 -0.047048 0.093343 -0.181689 -0.138905 0.257287 0.133059 0.064644 -0.013132 -0.109436 -0.012385 0.096746 0.189660 -0.042068 0.093081 -0.054212 -0.141908 -0.083855 0.073001 -0.054548 0.064078 0.073665 0.118602 -0.252431 -0.076401 -0.099263 0.043587 -0.029228 -0.042180 0.139260 -0.164238 -0.086862 0.124618 0.068125 -0.141078 -0.070343 -0.048509 0.042629 -0.086400 -0.047702 -0.029197 0.006701 -0.017715 0.043686 -0.033159 0.070178 0.089803 0.001464 0.043791 -0.076490 -0.261614 -0.033093 -0.168220 -0.060628 0.196327 0.108222 -0.073282 -0.000926 -0.028139 0.088859 -0.008073 -0.030466 -0.084620 -0.058064 0.102093 -0.186083 -0.109472 0.070311 -0.116317 -0.125195 0.023727 -0.096146 0.002769 0.015567 0.034266 0.200840 0.026361 -0.076355 -0.101679 0.034772 -0.058719 0.055933 0.093010 -0.133183 0.033728 -0.063420 0.136851 -0.107806 -0.054820 -0.031301 -0.133526 0.027835 -0.153714 -0.059599 0.067574 0.096065 0.021420
8 -0.054498 -0.174788 0.102101 0.010877 0.012186 -0.157789 0.053868 0.146859 0.043267 0.056300 -0.025844 0.087664 0.064001 -0.162633 0.034494 -0.174225 0.003385 -0.127560 0.159609 0.045874 0.140126 -0.043917 0.041927 -0.117271 0.017571 0.051135 0.002210 0.087663 0.129038 0.143677 -0.052489 -0.005446 -0.068078 0.095154 -0.151790 -0.170904 0.211384 0.092757 0.086919 0.038792 -0.051548 -0.097539 0.098797 0.219268 -0.073301 0.079419 -0.070044 -0.130179 -0.041214 0.103475 -0.131923 -0.015299 0.118426 0.155903 -0.280463 -0.091688 -0.082827 0.064308 -0.022241 -0.089189 0.144760 -0.152648 -0.051034 0.060630 0.062912 -0.009284 -0.052040 -0.041277 0.022797 -0.117946 -0.094290 -0.068406 0.049663 -0.070992 0.112952 0.007272 0.079506 0.028549 -0.001673 -0.067285 -0.063245 -0.220209 -0.063063 -0.081555 -0.102107 0.081892 0.200293 -0.112556 0.081333 -0.017630 0.112312 -0.052323 -0.066722 -0.072607 -0.134135 -0.017256 -0.114942 -0.229524 0.058008 0.004580 -0.046054 -0.037581 -0.051114 0.015126 -0.004873 -0.055426 0.123982 0.009171 -0.079959 -0.137326 -0.001179 0.036509 0.090352 0.117154 -0.201630 0.058537 -0.047396 0.140616 -0.148744 -0.139454 -0.003917 -0.052979 0.079070 -0.148584 -0.156840 -0.005003 0.178650 0.043679
30 -0.078825 -0.202454 0.114281 0.074035 0.067621 -0.158971 0.105217 0.080038 -0.023703 0.054953 -0.062656 0.063969 0.048196 -0.199235 -0.028292 -0.201038 0.037935 -0.138091 0.146595 0.100151 0.176285 -0.030142 0.090898 -0.122100 -0.030518 0.008406 -0.002214 0.076981 0.086231 0.189687 -0.066859 0.004984 -0.048018 0.095569 -0.188986 -0.142086 0.262386 0.141001 0.070697 -0.011387 -0.109936 -0.021540 0.104578 0.204097 -0.045117 0.097573 -0.052010 -0.155578 -0.084536 0.085880 -0.067891 0.062878 0.084254 0.121427 -0.269376 -0.084466 -0.110461 0.051000 -0.023692 -0.046586 0.148225 -0.173511 -0.088169 0.125765 0.076884 -0.137523 -0.072973 -0.055057 0.048542 -0.098767 -0.052665 -0.037652 0.013718 -0.021878 0.054388 -0.033410 0.079162 0.093202 0.002243 0.033753 -0.087439 -0.270676 -0.042369 -0.172800 -0.066419 0.198412 0.120961 -0.083131 0.000870 -0.028621 0.100047 -0.016697 -0.034314 -0.081054 -0.067941 0.096831 -0.193641 -0.124871 0.076486 -0.110804 -0.117689 0.016946 -0.102201 -0.003395 0.013347 0.022090 0.204564 0.025744 -0.084916 -0.111608 0.029106 -0.054228 0.058815 0.095107 -0.138202 0.037312 -0.066826 0.146725 -0.122140 -0.061958 -0.035267 -0.128386 0.035647 -0.156968 -0.072361 0.066227 0.111644 0.022786
6 -0.054624 -0.213865 0.109676 0.013782 -0.009005 -0.163665 0.049630 0.167962 0.080232 0.058263 -0.019647 0.096420 0.065002 -0.164051 0.058956 -0.168252 -0.006985 -0.147999 0.160899 0.029093 0.149125 -0.066650 0.039344 -0.118397 0.044541 0.039679 0.000766 0.073180 0.131309 0.146040 -0.038529 -0.012705 -0.065720 0.075402 -0.156349 -0.184398 0.199413 0.101186 0.076478 0.031500 -0.046469 -0.109310 0.108061 0.221878 -0.097891 0.092994 -0.059469 -0.128993 -0.014972 0.128832 -0.159170 -0.007177 0.117699 0.155816 -0.281188 -0.099122 -0.078803 0.072160 -0.003151 -0.101806 0.164248 -0.156991 -0.029686 0.062150 0.052175 0.012696 -0.058553 -0.035379 0.020359 -0.141074 -0.104793 -0.078165 0.042717 -0.072032 0.145974 0.013638 0.080377 0.022984 -0.002993 -0.105327 -0.078816 -0.199299 -0.063135 -0.061429 -0.119137 0.038032 0.233645 -0.129106 0.100652 -0.013377 0.136864 -0.066868 -0.061850 -0.055743 -0.146566 -0.032922 -0.094299 -0.276861 0.075097 0.030239 -0.028583 -0.042340 -0.055335 0.022448 -0.017477 -0.071824 0.111961 0.010944 -0.070643 -0.149399 -0.000959 0.068363 0.095798 0.127573 -0.226670 0.067852 -0.042956 0.135665 -0.163781 -0.165278 0.005949 -0.028183 0.108663 -0.166364 -0.203906 -0.018828 0.210039 0.048813
9 -0.072860 -0.190148 0.108030 0.046355 0.046100 -0.156877 0.079173 0.107956 0.009831 0.051575 -0.042617 0.075590 0.055343 -0.182300 -0.002422 -0.182441 0.019486 -0.130122 0.147962 0.074209 0.155794 -0.033384 0.071786 -0.117920 -0.011574 0.025331 -0.004674 0.072814 0.103689 0.170354 -0.055877 0.005390 -0.056823 0.090475 -0.168414 -0.156743 0.239727 0.121393 0.069497 0.011271 -0.089652 -0.055364 0.103725 0.206302 -0.061845 0.086667 -0.055911 -0.143191 -0.064517 0.088645 -0.095730 0.033671 0.090829 0.133355 -0.265835 -0.088508 -0.095762 0.055732 -0.022272 -0.065019 0.147651 -0.161315 -0.074424 0.100930 0.068125 -0.084018 -0.062794 -0.047313 0.034798 -0.103893 -0.066954 -0.046310 0.029610 -0.040774 0.081921 -0.016878 0.075924 0.068809 -0.001903 -0.008590 -0.074001 -0.243235 -0.048917 -0.137255 -0.081176 0.142981 0.154537 -0.096277 0.033340 -0.022627 0.105129 -0.029122 -0.041926 -0.071660 -0.094685 0.046671 -0.153961 -0.167451 0.070809 -0.058542 -0.094026 -0.007017 -0.082668 0.009251 0.005736 -0.006789 0.166085 0.023186 -0.081219 -0.123290 0.022499 -0.012391 0.074846 0.104107 -0.164154 0.044547 -0.058540 0.145207 -0.132718 -0.093044 -0.020030 -0.097084 0.052080 -0.155060 -0.113814 0.039315 0.135294 0.031470
28 -0.082516 -0.196039 0.119560 0.062870 0.067903 -0.160284 0.098272 0.086867 -0.022728 0.052905 -0.054620 0.067707 0.053510 -0.191704 -0.025123 -0.196731 0.033969 -0.139907 0.155546 0.095900 0.171171 -0.029429 0.082041 -0.119335 -0.032848 0.017472 -0.008981 0.081204 0.099798 0.184460 -0.066080 0.009900 -0.046612 0.102085 -0.187433 -0.153287 0.261488 0.136510 0.073014 -0.003952 -0.106386 -0.034379 0.103701 0.203833 -0.050242 0.092746 -0.060003 -0.149130 -0.083889 0.080654 -0.076958 0.053462 0.088606 0.124836 -0.269923 -0.084344 -0.104205 0.045601 -0.031896 -0.047908 0.146724 -0.169740 -0.084363 0.120619 0.071958 -0.124150 -0.071140 -0.048468 0.038753 -0.099480 -0.060286 -0.035898 0.013063 -0.029823 0.055136 -0.026422 0.076634 0.088555 -0.002572 0.025298 -0.082352 -0.270561 -0.036964 -0.162281 -0.067737 0.191276 0.130399 -0.084627 0.010250 -0.027524 0.099182 -0.016211 -0.040807 -0.089188 -0.070310 0.083601 -0.185702 -0.133387 0.072520 -0.103546 -0.118324 0.015842 -0.098787 0.003241 0.016726 0.022214 0.200659 0.028452 -0.078244 -0.116561 0.029966 -0.042610 0.061690 0.101208 -0.147185 0.036419 -0.063220 0.143075 -0.121453 -0.078610 -0.027984 -0.124083 0.036748 -0.155775 -0.084499 0.055243 0.113653 0.024871
7 -0.056656 -0.204594 0.103647 0.019488 0.000972 -0.157145 0.059625 0.145878 0.067932 0.054907 -0.028311 0.090704 0.064501 -0.177081 0.042769 -0.176216 0.003415 -0.149816 0.155029 0.043741 0.158092 -0.060813 0.049218 -0.110639 0.031540 0.029732 -0.006936 0.073420 0.120220 0.151945 -0.041927 -0.000167 -0.065427 0.075555 -0.170517 -0.180797 0.211114 0.104334 0.077230 0.020371 -0.064494 -0.092239 0.107417 0.223841 -0.088592 0.096509 -0.060008 -0.130410 -0.027523 0.121157 -0.146489 0.013390 0.113935 0.154319 -0.287657 -0.094216 -0.085259 0.066227 -0.007541 -0.083630 0.161958 -0.164718 -0.040511 0.077939 0.052766 -0.013977 -0.058703 -0.034111 0.026439 -0.136537 -0.098437 -0.068384 0.033250 -0.062708 0.127987 0.005523 0.075448 0.034188 -0.001708 -0.085236 -0.077249 -0.209340 -0.059032 -0.079495 -0.115183 0.066578 0.204715 -0.118609 0.081820 -0.014337 0.133817 -0.057007 -0.052742 -0.062570 -0.131274 -0.003891 -0.110378 -0.247723 0.071770 0.006362 -0.053550 -0.024757 -0.072879 0.015915 -0.009481 -0.057958 0.132565 0.013394 -0.069112 -0.139610 0.006374 0.047704 0.086000 0.115620 -0.215180 0.057288 -0.050443 0.138471 -0.159513 -0.142428 -0.003684 -0.043001 0.096592 -0.162510 -0.179185 -0.005962 0.189187 0.052022
29 -0.074210 -0.177061 0.102250 0.051177 0.063742 -0.157733 0.088684 0.084046 -0.012736 0.050872 -0.048649 0.067756 0.047256 -0.181834 -0.015472 -0.185365 0.025369 -0.135241 0.149303 0.082182 0.165729 -0.031179 0.072257 -0.111771 -0.030923 0.011580 -0.006049 0.071330 0.098106 0.177054 -0.056430 0.004337 -0.044937 0.091747 -0.180373 -0.144737 0.246954 0.130108 0.069090 -0.005595 -0.092972 -0.032824 0.094521 0.188081 -0.044692 0.097316 -0.053367 -0.140619 -0.075369 0.082922 -0.076740 0.047115 0.077880 0.122443 -0.264750 -0.078817 -0.090252 0.051332 -0.022331 -0.046017 0.145907 -0.163427 -0.086127 0.113029 0.062785 -0.113983 -0.072227 -0.050465 0.043854 -0.089454 -0.061070 -0.040598 0.014192 -0.024551 0.061072 -0.020225 0.078435 0.079033 0.002160 0.012003 -0.082616 -0.245286 -0.034549 -0.155924 -0.068227 0.170308 0.136084 -0.093296 0.013933 -0.031549 0.097278 -0.021250 -0.037940 -0.078282 -0.070820 0.077455 -0.173574 -0.135904 0.071611 -0.091774 -0.109167 0.011566 -0.090161 0.007815 0.015095 0.012321 0.179854 0.019418 -0.071525 -0.109277 0.030376 -0.032740 0.060020 0.096509 -0.148714 0.035084 -0.058891 0.136146 -0.116266 -0.081189 -0.025331 -0.113859 0.037973 -0.154193 -0.084188 0.053656 0.109252 0.018603
20 -0.070066 -0.200986 0.114459 0.042825 0.038503 -0.170444 0.083613 0.124408 0.011253 0.054736 -0.045058 0.077540 0.062990 -0.182400 0.006090 -0.189214 0.014840 -0.135248 0.155781 0.065316 0.166097 -0.041135 0.069893 -0.120415 -0.003366 0.033261 0.002590 0.082064 0.113491 0.163825 -0.061884 -0.002214 -0.059013 0.094156 -0.168140 -0.160067 0.241781 0.114266 0.074948 0.010526 -0.083541 -0.066187 0.102178 0.213761 -0.061907 0.091102 -0.056782 -0.143569 -0.058603 0.095520 -0.108413 0.023719 0.104338 0.138348 -0.280208 -0.090712 -0.094184 0.056696 -0.024986 -0.068959 0.156120 -0.162511 -0.068895 0.094836 0.067033 -0.068622 -0.064316 -0.045616 0.032470 -0.109051 -0.079553 -0.054028 0.031414 -0.050545 0.090531 -0.009128 0.084768 0.057883 0.000439 -0.021231 -0.077481 -0.252341 -0.053693 -0.130509 -0.086606 0.139625 0.168508 -0.102073 0.044221 -0.020757 0.112404 -0.035384 -0.051300 -0.078634 -0.106055 0.036494 -0.151558 -0.192683 0.068911 -0.045240 -0.084513 -0.015541 -0.078111 0.012391 0.001614 -0.016654 0.164371 0.018375 -0.078764 -0.124733 0.012854 -0.000454 0.079001 0.113620 -0.179617 0.048750 -0.052199 0.149458 -0.140056 -0.109243 -0.017523 -0.084734 0.062552 -0.162170 -0.124853 0.031068 0.148356 0.036156
5 -0.062282 -0.222211 0.110041 0.020756 0.006306 -0.169671 0.062712 0.153117 0.068838 0.056411 -0.024879 0.099577 0.062066 -0.171376 0.045839 -0.182912 -0.002351 -0.150381 0.159966 0.044964 0.158080 -0.055319 0.046303 -0.116298 0.032270 0.036914 -0.000068 0.076110 0.126297 0.151076 -0.047703 -0.008096 -0.069255 0.084027 -0.159900 -0.184084 0.214855 0.107184 0.079301 0.029242 -0.053214 -0.100878 0.105194 0.225926 -0.092160 0.092282 -0.060753 -0.134644 -0.030221 0.119198 -0.149258 0.004013 0.120344 0.149993 -0.282533 -0.100338 -0.083283 0.070423 -0.007953 -0.097834 0.159441 -0.166658 -0.039605 0.074419 0.053769 -0.007406 -0.055822 -0.040329 0.027258 -0.138354 -0.102416 -0.072611 0.040544 -0.073346 0.134284 0.004041 0.079842 0.028354 -0.005201 -0.088955 -0.081420 -0.219830 -0.065334 -0.083912 -0.118718 0.065624 0.221423 -0.119286 0.090252 -0.016618 0.133879 -0.061768 -0.058448 -0.061643 -0.142464 -0.013958 -0.116511 -0.257840 0.077680 0.014644 -0.049769 -0.033786 -0.065555 0.012852 -0.014813 -0.061124 0.130774 0.011383 -0.081275 -0.146262 -0.001386 0.048785 0.094340 0.120518 -0.218557 0.064957 -0.045528 0.145479 -0.157059 -0.149402 -0.002575 -0.042623 0.096316 -0.168055 -0.187917 -0.003819 0.193319 0.053872
31 -0.071536 -0.183917 0.114247 0.053531 0.054255 -0.159456 0.084198 0.095518 -0.011917 0.051856 -0.044933 0.073237 0.058740 -0.182127 -0.012531 -0.186497 0.022424 -0.124268 0.148133 0.079961 0.159160 -0.030218 0.069361 -0.111014 -0.017660 0.025421 -0.000150 0.083474 0.100315 0.166771 -0.064564 0.007415 -0.058384 0.099833 -0.166539 -0.144212 0.237974 0.117441 0.075496 0.001940 -0.089317 -0.042031 0.100032 0.197432 -0.053183 0.081728 -0.059058 -0.142948 -0.070361 0.083397 -0.083536 0.036970 0.090645 0.127446 -0.260343 -0.085952 -0.092182 0.049151 -0.031745 -0.061068 0.141990 -0.156909 -0.080625 0.096424 0.064892 -0.093046 -0.067104 -0.048664 0.032957 -0.097453 -0.063016 -0.045323 0.027303 -0.037580 0.068553 -0.019540 0.081404 0.069299 0.004411 0.008209 -0.072869 -0.252995 -0.046027 -0.143706 -0.069423 0.160374 0.135457 -0.089595 0.026273 -0.027141 0.090659 -0.017557 -0.041213 -0.081886 -0.091566 0.059956 -0.166659 -0.149638 0.064978 -0.069088 -0.101338 0.000186 -0.077744 0.000473 0.005274 0.004740 0.174675 0.024822 -0.077693 -0.111096 0.017658 -0.030667 0.065303 0.098482 -0.147914 0.044594 -0.058410 0.145670 -0.125307 -0.080750 -0.025058 -0.105544 0.038728 -0.153331 -0.093561 0.045777 0.118046 0.029414
11 -0.071430 -0.219490 0.115748 0.031441 0.016652 -0.168179 0.063195 0.144020 0.055111 0.053984 -0.033761 0.090056 0.059471 -0.173063 0.036059 -0.184211 0.005551 -0.150060 0.160781 0.050059 0.166082 -0.057130 0.059911 -0.119293 0.018283 0.027421 -0.005352 0.076362 0.116959 0.158707 -0.044516 -0.003983 -0.058782 0.077948 -0.171660 -0.173723 0.227775 0.118649 0.077385 0.023768 -0.066442 -0.081754 0.110973 0.220336 -0.084423 0.099798 -0.056758 -0.133407 -0.040084 0.119496 -0.133753 0.017772 0.111154 0.148683 -0.288287 -0.100273 -0.088515 0.070720 -0.015019 -0.083296 0.162862 -0.171361 -0.045742 0.089024 0.055477 -0.032704 -0.067844 -0.042274 0.033802 -0.133933 -0.092484 -0.068938 0.032213 -0.060785 0.123698 0.000267 0.080334 0.041494 -0.003782 -0.067735 -0.080072 -0.224969 -0.057304 -0.102380 -0.113348 0.091654 0.209207 -0.119315 0.075624 -0.019945 0.126594 -0.055539 -0.053591 -0.063055 -0.122936 0.004880 -0.125497 -0.235848 0.076366 -0.010267 -0.058476 -0.018156 -0.075404 0.017162 -0.006180 -0.045481 0.149069 0.010532 -0.074393 -0.144120 0.007936 0.036027 0.084092 0.119603 -0.209693 0.057116 -0.055316 0.148707 -0.158072 -0.142617 -0.004790 -0.063551 0.091817 -0.173337 -0.170252 0.003669 0.178647 0.044302
26 -0.078236 -0.202579 0.120024 0.064041 0.065917 -0.168497 0.100933 0.089279 -0.016711 0.053652 -0.057711 0.065410 0.056963 -0.198295 -0.020276 -0.194935 0.035199 -0.143744 0.153257 0.095955 0.181781 -0.033027 0.087697 -0.117201 -0.029086 0.010672 -0.012489 0.074518 0.093276 0.191936 -0.059597 0.008670 -0.045879 0.090924 -0.195838 -0.157458 0.263498 0.138279 0.068166 -0.006559 -0.107588 -0.034437 0.099400 0.201385 -0.054198 0.104428 -0.058093 -0.147341 -0.079779 0.090674 -0.075285 0.059447 0.085491 0.123125 -0.272892 -0.085764 -0.100279 0.049691 -0.029262 -0.049257 0.153096 -0.174845 -0.082050 0.126890 0.070147 -0.123877 -0.070557 -0.054496 0.042499 -0.101793 -0.061577 -0.039363 0.009700 -0.027470 0.064607 -0.029541 0.070734 0.086411 -0.001875 0.016069 -0.087476 -0.264268 -0.037406 -0.160346 -0.071318 0.187278 0.133492 -0.089421 0.012463 -0.030327 0.104609 -0.019271 -0.033243 -0.078593 -0.069807 0.081921 -0.182874 -0.140748 0.078096 -0.102097 -0.112146 0.013574 -0.098780 0.008806 0.015916 0.018395 0.198217 0.024428 -0.072711 -0.111863 0.025666 -0.039044 0.065249 0.104524 -0.151529 0.039484 -0.060537 0.139411 -0.118097 -0.083887 -0.027236 -0.122342 0.040104 -0.164812 -0.089096 0.059702 0.115885 0.020287
25 -0.083587 -0.204999 0.116630 0.057830 0.059617 -0.173279 0.094784 0.097284 -0.006796 0.055805 -0.055958 0.068596 0.059106 -0.198736 -0.017837 -0.207056 0.035502 -0.149771 0.165937 0.098973 0.186776 -0.035757 0.087020 -0.122837 -0.026895 0.015019 -0.008818 0.082132 0.101789 0.195467 -0.062327 0.006763 -0.049783 0.096984 -0.202878 -0.162829 0.264355 0.142689 0.072626 -0.003122 -0.108037 -0.040359 0.102515 0.209486 -0.052641 0.105284 -0.060911 -0.146881 -0.076314 0.089194 -0.089864 0.052561 0.095074 0.136723 -0.290722 -0.089409 -0.099727 0.049147 -0.029519 -0.049687 0.155204 -0.175506 -0.082574 0.120722 0.068790 -0.118979 -0.073883 -0.049994 0.037438 -0.104855 -0.069343 -0.046027 0.021331 -0.030992 0.066041 -0.028368 0.075067 0.087712 0.002278 0.008528 -0.086640 -0.280330 -0.042665 -0.165946 -0.078543 0.184935 0.148751 -0.101856 0.016898 -0.034812 0.107116 -0.024684 -0.038770 -0.091585 -0.082483 0.077677 -0.185909 -0.156832 0.078302 -0.093650 -0.117607 0.009923 -0.101343 0.010397 0.018440 0.010319 0.201543 0.026807 -0.078552 -0.124200 0.025040 -0.034638 0.074078 0.107282 -0.170175 0.039978 -0.059833 0.146708 -0.129684 -0.094377 -0.024243 -0.116617 0.043554 -0.169276 -0.099080 0.057518 0.123207 0.025291
13 -0.063574 -0.196884 0.112683 0.025765 0.027665 -0.168060 0.070746 0.133864 0.034648 0.058503 -0.037337 0.084869 0.064524 -0.183374 0.022387 -0.187568 0.007680 -0.142591 0.161557 0.055598 0.164238 -0.045585 0.054569 -0.119027 0.004094 0.035763 0.003642 0.086197 0.124668 0.162253 -0.057241 -0.000663 -0.066603 0.093313 -0.168834 -0.175732 0.236015 0.117023 0.082209 0.021933 -0.068909 -0.082151 0.109101 0.225409 -0.074446 0.093470 -0.062079 -0.141576 -0.050717 0.109496 -0.127014 0.014100 0.112865 0.154530 -0.291884 -0.098350 -0.094004 0.063082 -0.017474 -0.083778 0.159547 -0.164759 -0.064435 0.081022 0.066444 -0.044585 -0.064929 -0.047906 0.033587 -0.124130 -0.089964 -0.064963 0.039333 -0.061110 0.109209 -0.006343 0.082563 0.045448 -0.004144 -0.053101 -0.077686 -0.240166 -0.057689 -0.111051 -0.102509 0.107735 0.193378 -0.113174 0.061968 -0.015949 0.120953 -0.046250 -0.059908 -0.077940 -0.122404 0.013119 -0.138547 -0.220739 0.069419 -0.021544 -0.067446 -0.020897 -0.069474 0.013025 -0.004996 -0.039338 0.153413 0.015117 -0.081791 -0.140733 0.014134 0.017359 0.084852 0.121357 -0.198710 0.052179 -0.054733 0.151616 -0.148020 -0.130718 -0.008992 -0.068555 0.077959 -0.160227 -0.152303 0.016609 0.170502 0.044858
16 -0.074616 -0.189200 0.112144 0.051467 0.048124 -0.150747 0.083675 0.094544 0.000165 0.051235 -0.048402 0.070137 0.050759 -0.176096 -0.003911 -0.182895 0.020660 -0.134051 0.143323 0.074002 0.157501 -0.032050 0.072746 -0.113802 -0.012671 0.019748 -0.001589 0.073703 0.096997 0.165971 -0.059832 0.006318 -0.054295 0.088582 -0.169784 -0.148056 0.240399 0.120300 0.068242 0.001450 -0.093132 -0.039909 0.103317 0.198346 -0.055409 0.086824 -0.051850 -0.138732 -0.068173 0.093209 -0.083963 0.040236 0.090743 0.130956 -0.262980 -0.086603 -0.095921 0.053077 -0.022716 -0.063175 0.145481 -0.163029 -0.075202 0.100013 0.067656 -0.093704 -0.064313 -0.044261 0.035957 -0.105658 -0.061354 -0.049686 0.023835 -0.036463 0.075983 -0.020392 0.079182 0.068261 -0.000775 0.000233 -0.073528 -0.245561 -0.042277 -0.142020 -0.075091 0.155685 0.145055 -0.087931 0.029637 -0.024108 0.097504 -0.022099 -0.045755 -0.073837 -0.087653 0.060588 -0.156997 -0.156835 0.067654 -0.073200 -0.091661 0.002634 -0.079253 0.002958 0.003963 -0.002202 0.169174 0.019998 -0.074503 -0.115418 0.020643 -0.016396 0.063945 0.104748 -0.154420 0.047052 -0.058085 0.144775 -0.125791 -0.088390 -0.022391 -0.100192 0.046946 -0.156705 -0.099574 0.043505 0.128143 0.032029
22 -0.053446 -0.182940 0.103893 0.017032 0.016458 -0.161933 0.056692 0.141177 0.034834 0.052308 -0.029449 0.087749 0.069070 -0.169232 0.028904 -0.176950 0.001066 -0.128688 0.158339 0.052086 0.148426 -0.043175 0.050982 -0.114262 0.011043 0.049835 0.001267 0.082592 0.128909 0.147750 -0.054810 -0.007647 -0.072660 0.094718 -0.154962 -0.171062 0.211446 0.093288 0.080728 0.026934 -0.052485 -0.096466 0.099134 0.220637 -0.070770 0.081647 -0.070797 -0.131409 -0.040032 0.098762 -0.129570 -0.009127 0.111559 0.150326 -0.274309 -0.091017 -0.080100 0.067662 -0.019612 -0.088467 0.149686 -0.151293 -0.052517 0.067215 0.062265 -0.014978 -0.059668 -0.039117 0.025796 -0.113674 -0.091888 -0.062932 0.049957 -0.070645 0.113311 0.004313 0.080114 0.035163 0.002116 -0.060107 -0.070433 -0.227871 -0.059528 -0.093528 -0.096595 0.086915 0.193799 -0.113420 0.077765 -0.016379 0.113011 -0.048289 -0.062852 -0.078035 -0.132005 -0.005189 -0.122722 -0.221911 0.064385 -0.002655 -0.055260 -0.031804 -0.049655 0.015352 -0.006389 -0.044734 0.130120 0.018583 -0.079878 -0.130463 0.003912 0.027563 0.089177 0.116678 -0.193069 0.054346 -0.048918 0.142152 -0.148287 -0.132874 -0.004166 -0.055821 0.073569 -0.152582 -0.150107 0.004778 0.173708 0.046058
21 -0.080871 -0.176470 0.110122 0.063568 0.070263 -0.154368 0.097451 0.072869 -0.030351 0.053061 -0.056566 0.060427 0.049434 -0.190916 -0.031743 -0.187938 0.037143 -0.126440 0.145371 0.096629 0.168468 -0.023583 0.082881 -0.110791 -0.035889 0.009211 -0.003950 0.075512 0.085248 0.177801 -0.060943 0.007119 -0.046579 0.098068 -0.179901 -0.136665 0.249646 0.133969 0.068674 -0.006228 -0.108805 -0.014864 0.095543 0.185547 -0.042708 0.088502 -0.050145 -0.143605 -0.080145 0.072616 -0.054072 0.058666 0.080755 0.114526 -0.256931 -0.078348 -0.099240 0.041457 -0.032325 -0.038489 0.133821 -0.158047 -0.088848 0.120677 0.074234 -0.132751 -0.068257 -0.054926 0.041038 -0.089940 -0.045113 -0.036619 0.014535 -0.017583 0.046594 -0.030476 0.071463 0.085394 0.003900 0.041204 -0.079046 -0.257455 -0.036422 -0.169630 -0.059826 0.191937 0.107506 -0.079203 0.002497 -0.031495 0.089898 -0.006411 -0.036463 -0.079666 -0.064317 0.093293 -0.188439 -0.110140 0.070049 -0.108464 -0.122236 0.015235 -0.094411 0.003315 0.018378 0.029348 0.196006 0.023235 -0.079307 -0.105098 0.034810 -0.051244 0.056018 0.093659 -0.131205 0.038578 -0.064610 0.141161 -0.111808 -0.055488 -0.031827 -0.129904 0.027696 -0.154671 -0.061110 0.065739 0.099929 0.016236
23 -0.083467 -0.200195 0.117788 0.069201 0.069023 -0.162466 0.099226 0.091409 -0.018421 0.051987 -0.058786 0.067809 0.054838 -0.201472 -0.026377 -0.196665 0.034130 -0.136565 0.156235 0.099571 0.176129 -0.031227 0.082876 -0.117999 -0.028914 0.012975 -0.009493 0.076081 0.093052 0.192367 -0.066856 0.009318 -0.052312 0.100317 -0.194201 -0.155420 0.267602 0.137014 0.068751 -0.004194 -0.111202 -0.028485 0.107718 0.207271 -0.048524 0.094530 -0.056365 -0.150547 -0.084425 0.085469 -0.072005 0.056341 0.089567 0.125816 -0.277169 -0.091806 -0.107482 0.049862 -0.028376 -0.055068 0.152078 -0.174374 -0.087202 0.125443 0.076429 -0.129807 -0.070078 -0.050292 0.045565 -0.097707 -0.058257 -0.039854 0.020166 -0.025807 0.056512 -0.028755 0.082215 0.089800 0.005154 0.027146 -0.080344 -0.275989 -0.036694 -0.171547 -0.071652 0.196864 0.131647 -0.088011 0.007662 -0.031439 0.101832 -0.013176 -0.041208 -0.085374 -0.080919 0.087144 -0.188980 -0.139873 0.074585 -0.099976 -0.122464 0.011789 -0.096234 0.000046 0.012554 0.017407 0.200395 0.023639 -0.080106 -0.114738 0.026942 -0.046937 0.064166 0.101310 -0.151528 0.041493 -0.066465 0.154169 -0.125551 -0.074484 -0.028492 -0.126309 0.036076 -0.168684 -0.083220 0.058569 0.115478 0.023871
19 -0.082171 -0.200889 0.122412 0.072547 0.075331 -0.155948 0.102927 0.070510 -0.028742 0.051811 -0.063352 0.063266 0.046055 -0.194545 -0.033038 -0.195031 0.035804 -0.137623 0.150873 0.103140 0.175315 -0.028639 0.089447 -0.114694 -0.036604 0.010187 -0.005656 0.075159 0.084816 0.188094 -0.066197 0.009964 -0.045758 0.095070 -0.187993 -0.141551 0.259796 0.144028 0.070298 -0.009780 -0.114717 -0.015865 0.102995 0.193937 -0.040093 0.097365 -0.046805 -0.155598 -0.086401 0.081922 -0.061674 0.065560 0.075181 0.117915 -0.262192 -0.082086 -0.109214 0.047802 -0.024205 -0.044483 0.143214 -0.169557 -0.090865 0.131135 0.072417 -0.147916 -0.068819 -0.055644 0.044682 -0.095523 -0.047944 -0.035286 0.010782 -0.015686 0.045845 -0.037814 0.080464 0.097024 -0.000974 0.038023 -0.085481 -0.269603 -0.035428 -0.182324 -0.064108 0.203377 0.118259 -0.079376 -0.006457 -0.032577 0.093041 -0.005464 -0.028037 -0.080545 -0.066816 0.106199 -0.196385 -0.116089 0.076586 -0.120415 -0.125466 0.022079 -0.106064 -0.002796 0.015206 0.032025 0.206751 0.026300 -0.082503 -0.111373 0.032733 -0.057057 0.059716 0.095519 -0.133406 0.041763 -0.061092 0.151809 -0.121156 -0.055884 -0.035821 -0.138962 0.029176 -0.163344 -0.071433 0.070842 0.097480 0.015868
27 -0.078306 -0.204434 0.117068 0.061344 0.069876 -0.164157 0.102370 0.094750 -0.022976 0.055450 -0.059733 0.067083 0.051308 -0.190922 -0.022861 -0.200479 0.037453 -0.137873 0.153008 0.088572 0.176470 -0.026516 0.086290 -0.114879 -0.028859 0.012828 -0.006800 0.083639 0.093253 0.184941 -0.065862 0.002859 -0.054104 0.097775 -0.180699 -0.150734 0.256956 0.132984 0.071603 -0.006055 -0.107945 -0.031302 0.103724 0.205433 -0.047047 0.097112 -0.050928 -0.152749 -0.079588 0.087277 -0.070677 0.054765 0.085166 0.132725 -0.274679 -0.089731 -0.105062 0.052583 -0.025206 -0.049298 0.144648 -0.165232 -0.091178 0.118521 0.073694 -0.122631 -0.072464 -0.051287 0.042420 -0.100570 -0.062393 -0.038259 0.019152 -0.032613 0.057698 -0.031892 0.083690 0.082392 -0.001291 0.023690 -0.087550 -0.272375 -0.043252 -0.163057 -0.074330 0.189565 0.136037 -0.088986 0.007198 -0.027440 0.096051 -0.020212 -0.038056 -0.084352 -0.082379 0.085730 -0.187691 -0.143276 0.078313 -0.101992 -0.120634 0.011331 -0.092204 -0.002443 0.014366 0.019037 0.203741 0.022359 -0.088123 -0.114289 0.030003 -0.044171 0.065323 0.101762 -0.148509 0.039767 -0.062216 0.151686 -0.128784 -0.075149 -0.033141 -0.122034 0.040995 -0.163752 -0.087189 0.061608 0.117819 0.025121
18 -0.066803 -0.201475 0.113740 0.030779 0.032981 -0.174500 0.069212 0.141801 0.029120 0.061438 -0.038599 0.089735 0.070533 -0.186982 0.017714 -0.197255 0.011517 -0.139567 0.163383 0.067623 0.168487 -0.043866 0.065090 -0.123363 0.007750 0.043964 0.000332 0.089606 0.129245 0.168895 -0.060674 -0.000968 -0.066901 0.103271 -0.173337 -0.178724 0.239462 0.113436 0.085814 0.025988 -0.074724 -0.079704 0.106156 0.227914 -0.073235 0.092580 -0.071419 -0.145439 -0.053060 0.102251 -0.122458 0.006073 0.117495 0.159080 -0.296517 -0.092604 -0.092550 0.061903 -0.026726 -0.082610 0.159685 -0.171060 -0.064391 0.084138 0.071452 -0.044769 -0.063040 -0.047693 0.032178 -0.117070 -0.090436 -0.062858 0.045852 -0.065335 0.107984 -0.002656 0.089974 0.051879 0.001226 -0.043437 -0.080450 -0.250156 -0.057907 -0.118428 -0.100275 0.121975 0.193422 -0.113284 0.061564 -0.018564 0.117385 -0.046299 -0.057318 -0.084254 -0.128404 0.018847 -0.148684 -0.214129 0.072077 -0.028992 -0.074965 -0.020034 -0.068094 0.014272 -0.001060 -0.032055 0.154326 0.015738 -0.085472 -0.139546 0.007080 0.009557 0.084713 0.117631 -0.195037 0.052440 -0.053761 0.148137 -0.145975 -0.128580 -0.012176 -0.079224 0.068549 -0.165443 -0.142480 0.014369 0.165812 0.039817
17 -0.057176 -0.197495 0.101915 0.020576 -0.001545 -0.155087 0.056550 0.142202 0.066410 0.057517 -0.023707 0.091667 0.061834 -0.160002 0.038210 -0.164935 0.001358 -0.145536 0.149533 0.043708 0.149160 -0.059811 0.049681 -0.112846 0.030680 0.034456 -0.003559 0.071973 0.119032 0.148469 -0.039446 -0.004317 -0.058707 0.074060 -0.159598 -0.174277 0.204833 0.104677 0.073908 0.026439 -0.057305 -0.093510 0.099031 0.213988 -0.086282 0.087999 -0.055564 -0.120964 -0.028337 0.116194 -0.140560 0.004713 0.109790 0.140146 -0.267886 -0.093274 -0.084226 0.070214 -0.005693 -0.088234 0.152686 -0.156805 -0.036090 0.068688 0.051658 -0.008368 -0.057279 -0.037197 0.025640 -0.125527 -0.096276 -0.068264 0.036259 -0.064500 0.125461 0.009546 0.070408 0.027917 -0.001539 -0.083551 -0.072957 -0.201460 -0.053402 -0.073767 -0.113653 0.063951 0.205316 -0.116674 0.085233 -0.017157 0.120490 -0.056467 -0.055068 -0.055010 -0.127156 -0.010173 -0.101902 -0.234337 0.072967 0.009877 -0.045114 -0.027783 -0.066260 0.018481 -0.008828 -0.056672 0.127228 0.008440 -0.074166 -0.134582 0.003553 0.045711 0.089895 0.117507 -0.206758 0.056696 -0.048596 0.138650 -0.152541 -0.145411 0.001548 -0.040119 0.094000 -0.154609 -0.177263 -0.006388 0.182083 0.049663
10 -0.067836 -0.185454 0.106858 0.044528 0.048854 -0.157413 0.082498 0.110851 0.008104 0.050338 -0.040815 0.077256 0.054420 -0.178855 -0.001981 -0.184276 0.020859 -0.130513 0.151647 0.072746 0.161523 -0.035401 0.069085 -0.113558 -0.012657 0.027613 0.001041 0.078101 0.107530 0.163660 -0.063835 -0.002500 -0.056283 0.098729 -0.170847 -0.155424 0.240374 0.114815 0.072586 0.007497 -0.085401 -0.058345 0.106142 0.210486 -0.054337 0.090944 -0.053791 -0.143463 -0.059931 0.087620 -0.094685 0.028394 0.097182 0.133717 -0.271363 -0.084972 -0.092206 0.054001 -0.026273 -0.063193 0.148207 -0.159481 -0.077801 0.096267 0.066697 -0.076476 -0.064948 -0.049244 0.031770 -0.104367 -0.065946 -0.052630 0.034077 -0.043376 0.082720 -0.012550 0.081309 0.060459 -0.002488 -0.011736 -0.078566 -0.245460 -0.048338 -0.129941 -0.082372 0.142018 0.152169 -0.098392 0.036396 -0.024418 0.104194 -0.027846 -0.044149 -0.074233 -0.097029 0.048626 -0.155891 -0.174081 0.070399 -0.054576 -0.090322 -0.008930 -0.075942 0.008960 0.002621 -0.009938 0.169152 0.023668 -0.083244 -0.119866 0.021744 -0.016642 0.075942 0.105581 -0.163335 0.047179 -0.053595 0.147662 -0.133721 -0.100975 -0.019436 -0.096084 0.053048 -0.153268 -0.108009 0.034216 0.134129 0.032579
15 -0.087293 -0.195555 0.119454 0.069670 0.078305 -0.157257 0.105760 0.074230 -0.029228 0.050248 -0.057939 0.062507 0.050558 -0.199571 -0.029280 -0.201069 0.034904 -0.138104 0.149081 0.096830 0.180093 -0.024304 0.089365 -0.117923 -0.040102 0.008504 -0.008106 0.076116 0.090116 0.188664 -0.069618 0.011724 -0.046542 0.100144 -0.189553 -0.145015 0.265846 0.141017 0.072163 -0.007757 -0.117214 -0.017593 0.104926 0.199262 -0.041814 0.099654 -0.055804 -0.156302 -0.088487 0.080194 -0.062745 0.065148 0.080938 0.125561 -0.275558 -0.090219 -0.110885 0.044074 -0.027198 -0.042621 0.151938 -0.168155 -0.096135 0.126166 0.076674 -0.140736 -0.071891 -0.056231 0.051030 -0.091023 -0.048239 -0.038864 0.014773 -0.021964 0.047530 -0.034435 0.081150 0.094674 -0.001071 0.036513 -0.083068 -0.270989 -0.036466 -0.183062 -0.066065 0.202158 0.117864 -0.087138 -0.001382 -0.028277 0.097292 -0.006100 -0.031725 -0.087458 -0.071621 0.104369 -0.195822 -0.118451 0.077304 -0.112361 -0.126861 0.018221 -0.105248 0.001663 0.017657 0.025480 0.211855 0.027852 -0.081467 -0.114808 0.035323 -0.056404 0.058625 0.095806 -0.141991 0.042451 -0.064367 0.156780 -0.125248 -0.060554 -0.030990 -0.141298 0.035754 -0.161849 -0.074765 0.070067 0.106382 0.022200
12 -0.073122 -0.208842 0.116965 0.031742 0.029947 -0.170625 0.069957 0.129519 0.025742 0.059561 -0.035144 0.089253 0.062234 -0.179880 0.016132 -0.186605 0.009509 -0.139669 0.165172 0.060654 0.165751 -0.041411 0.064147 -0.123447 0.000264 0.033934 0.001349 0.085725 0.121665 0.166948 -0.055692 -0.000644 -0.068295 0.096881 -0.172456 -0.170269 0.236056 0.119571 0.081847 0.022181 -0.075162 -0.077674 0.109957 0.222228 -0.072520 0.095690 -0.062247 -0.144973 -0.056447 0.103921 -0.121460 0.017327 0.108694 0.146368 -0.292219 -0.098418 -0.092973 0.065584 -0.020972 -0.077915 0.159800 -0.166419 -0.066562 0.090737 0.063244 -0.051517 -0.061737 -0.047061 0.035051 -0.116233 -0.082303 -0.060016 0.040722 -0.056424 0.104220 -0.007696 0.088440 0.055816 0.000019 -0.038210 -0.080393 -0.247771 -0.060136 -0.121384 -0.101249 0.124098 0.188411 -0.112916 0.057346 -0.025197 0.116626 -0.040103 -0.057420 -0.078441 -0.118282 0.019902 -0.143739 -0.215498 0.074892 -0.031864 -0.079890 -0.021601 -0.071556 0.012792 -0.000682 -0.033825 0.159561 0.017305 -0.080996 -0.141023 0.007742 0.009825 0.086237 0.121605 -0.194059 0.057705 -0.055530 0.154979 -0.153559 -0.128440 -0.014132 -0.080660 0.072405 -0.163839 -0.146883 0.020999 0.161979 0.039719
